{"learner":{"attributes":{"scikit_learn":"{\"_estimator_type\": \"classifier\"}"},"feature_names":["session_dayofweek","session_month","is_weekend","total_price","gcash_payment","cash_payment","discounts","is_first_time","previous_session_counts","total_addon_cost","addon_quantity","addon_intensity","package_id","spend_ratio","acquisition_source_Walk-In","package_category_Regular","package_category_Valentines Package 2024","package_category_Yearbook","package_name_Adore","package_name_Allure","package_name_B","package_name_C","package_name_Christmas Special Package 2024","package_name_Christmas Special Package A 2024","package_name_Christmas Special Package B 2024","package_name_Christmas Special Package C 2024","package_name_Delight","package_name_Ecstasy","package_name_Priceless","package_name_Treasure","package_name_Valentines Special Package"],"feature_types":["int","int","int","float","int","int","float","int","int","float","float","float","int","float","i","i","i","i","i","i","i","i","i","i","i","i","i","i","i","i","i"],"gradient_booster":{"model":{"cats":{"enc":[],"feature_segments":[],"sorted_idx":[]},"gbtree_model_param":{"num_parallel_tree":"1","num_trees":"300"},"iteration_indptr":[0,1,2,3,4,5,6,7,8,9,10,11,12,13,14,15,16,17,18,19,20,21,22,23,24,25,26,27,28,29,30,31,32,33,34,35,36,37,38,39,40,41,42,43,44,45,46,47,48,49,50,51,52,53,54,55,56,57,58,59,60,61,62,63,64,65,66,67,68,69,70,71,72,73,74,75,76,77,78,79,80,81,82,83,84,85,86,87,88,89,90,91,92,93,94,95,96,97,98,99,100,101,102,103,104,105,106,107,108,109,110,111,112,113,114,115,116,117,118,119,120,121,122,123,124,125,126,127,128,129,130,131,132,133,134,135,136,137,138,139,140,141,142,143,144,145,146,147,148,149,150,151,152,153,154,155,156,157,158,159,160,161,162,163,164,165,166,167,168,169,170,171,172,173,174,175,176,177,178,179,180,181,182,183,184,185,186,187,188,189,190,191,192,193,194,195,196,197,198,199,200,201,202,203,204,205,206,207,208,209,210,211,212,213,214,215,216,217,218,219,220,221,222,223,224,225,226,227,228,229,230,231,232,233,234,235,236,237,238,239,240,241,242,243,244,245,246,247,248,249,250,251,252,253,254,255,256,257,258,259,260,261,262,263,264,265,266,267,268,269,270,271,272,273,274,275,276,277,278,279,280,281,282,283,284,285,286,287,288,289,290,291,292,293,294,295,296,297,298,299,300],"tree_info":[0,0,0,0,0,0,0,0,0,0,0,0,0,0,0,0,0,0,0,0,0,0,0,0,0,0,0,0,0,0,0,0,0,0,0,0,0,0,0,0,0,0,0,0,0,0,0,0,0,0,0,0,0,0,0,0,0,0,0,0,0,0,0,0,0,0,0,0,0,0,0,0,0,0,0,0,0,0,0,0,0,0,0,0,0,0,0,0,0,0,0,0,0,0,0,0,0,0,0,0,0,0,0,0,0,0,0,0,0,0,0,0,0,0,0,0,0,0,0,0,0,0,0,0,0,0,0,0,0,0,0,0,0,0,0,0,0,0,0,0,0,0,0,0,0,0,0,0,0,0,0,0,0,0,0,0,0,0,0,0,0,0,0,0,0,0,0,0,0,0,0,0,0,0,0,0,0,0,0,0,0,0,0,0,0,0,0,0,0,0,0,0,0,0,0,0,0,0,0,0,0,0,0,0,0,0,0,0,0,0,0,0,0,0,0,0,0,0,0,0,0,0,0,0,0,0,0,0,0,0,0,0,0,0,0,0,0,0,0,0,0,0,0,0,0,0,0,0,0,0,0,0,0,0,0,0,0,0,0,0,0,0,0,0,0,0,0,0,0,0,0,0,0,0,0,0,0,0,0,0,0,0,0,0,0,0,0,0,0,0,0,0,0,0,0,0,0,0,0,0],"trees":[{"base_weights":[-2.3326578E-3,-1.2790211E0,9.789395E-1,-1.1246784E0,-1.6556978E0,7.72885E-1,1.2279884E0,9.023093E-2,-1.1695213E0,-1.1744742E0,-1.8640004E0,5.0545186E-1,1.0154669E0,1.3694627E0,5.123361E-1,1.0158893E-1,-1.3846155E-1,-8.806129E-2,-1.3313843E-1,-1.8260871E-1,-5.2957892E-2,-9.873072E-2,-1.952381E-1,2.0738438E-2,9.828079E-2,8.768802E-2,1.4911886E-1,1.6607775E-1,1.1851344E-1,6.971179E-2,-1.2727273E-1],"categories":[],"categories_nodes":[],"categories_segments":[],"categories_sizes":[],"default_left":[0,0,0,0,0,0,0,0,0,0,0,0,0,0,0,0,0,0,0,0,0,0,0,0,0,0,0,0,0,0,0],"id":0,"left_children":[1,3,5,7,9,11,13,15,17,19,21,23,25,27,29,-1,-1,-1,-1,-1,-1,-1,-1,-1,-1,-1,-1,-1,-1,-1,-1],"loss_changes":[7.1825806E2,1.2623383E1,1.5686676E1,9.904221E0,4.8577576E0,1.1170441E1,1.3986771E1,1.1414556E1,6.9423676E0,9.093468E0,1.7420197E0,1.2267672E1,4.8531265E0,4.5040283E0,9.312661E0,0E0,0E0,0E0,0E0,0E0,0E0,0E0,0E0,0E0,0E0,0E0,0E0,0E0,0E0,0E0,0E0],"parents":[2147483647,0,0,1,1,2,2,3,3,4,4,5,5,6,6,7,7,8,8,9,9,10,10,11,11,12,12,13,13,14,14],"right_children":[2,4,6,8,10,12,14,16,18,20,22,24,26,28,30,-1,-1,-1,-1,-1,-1,-1,-1,-1,-1,-1,-1,-1,-1,-1,-1],"split_conditions":[2E0,9E0,3E0,2.4E2,2E1,1E0,1E0,4E0,3E0,5E0,-2.4E1,4E0,2.95E2,3E2,4.15E2,1.0158893E-1,-1.3846155E-1,-8.806129E-2,-1.3313843E-1,-1.8260871E-1,-5.2957892E-2,-9.873072E-2,-1.952381E-1,2.0738438E-2,9.828079E-2,8.768802E-2,1.4911886E-1,1.6607775E-1,1.1851344E-1,6.971179E-2,-1.2727273E-1],"split_indices":[8,1,8,3,9,14,19,1,0,0,6,12,9,5,9,0,0,0,0,0,0,0,0,0,0,0,0,0,0,0,0],"split_type":[0,0,0,0,0,0,0,0,0,0,0,0,0,0,0,0,0,0,0,0,0,0,0,0,0,0,0,0,0,0,0],"sum_hessian":[5.7133246E2,2.4815973E2,3.2317276E2,1.788585E2,6.9301216E1,1.7909723E2,1.4407553E2,6.3307295E0,1.7252777E2,2.2940971E1,4.6360245E1,8.665191E1,9.244531E1,1.1953212E2,2.4543404E1,4.0807295E0,2.25E0,6.4263885E1,1.08263885E2,1.05E1,1.2440972E1,5.360243E0,4.1E1,5.4226562E1,3.2425346E1,7.379167E1,1.8653646E1,4.321875E1,7.631337E1,2.2793404E1,1.75E0],"tree_param":{"num_deleted":"0","num_feature":"31","num_nodes":"31","size_leaf_vector":"1"}},{"base_weights":[6.6135116E-3,4.4761357E-1,-1.0874784E0,1.7713424E-2,1.0736278E0,-8.03582E-1,-1.6674292E0,1.8675934E-1,-4.5138362E-1,1.1718215E0,6.8327814E-1,-3.7640962E-1,-1.3216218E0,-4.1677982E-1,-1.8305711E-1,-1.2014197E-4,5.5726495E-2,2.1989709E-2,-8.460879E-2,1.2043821E-1,3.3589315E-2,2.566192E-2,1.1400572E-1,-6.324425E-2,6.60946E-2,-8.594976E-2,-1.7993778E-1,-1.3141716E-1,2.9832182E-2],"categories":[],"categories_nodes":[],"categories_segments":[],"categories_sizes":[],"default_left":[0,0,0,0,0,0,0,0,0,0,0,0,0,0,0,0,0,0,0,0,0,0,0,0,0,0,0,0,0],"id":1,"left_children":[1,3,5,7,9,11,13,15,17,19,21,23,25,27,-1,-1,-1,-1,-1,-1,-1,-1,-1,-1,-1,-1,-1,-1,-1],"loss_changes":[2.7660068E2,1.0993744E2,2.5775787E1,1.9373354E1,5.5746155E0,2.4397202E1,1.0090424E1,1.2502249E1,1.7336456E1,3.1746216E0,6.6901493E0,1.7164986E1,9.590324E0,5.162021E0,0E0,0E0,0E0,0E0,0E0,0E0,0E0,0E0,0E0,0E0,0E0,0E0,0E0,0E0,0E0],"parents":[2147483647,0,0,1,1,2,2,3,3,4,4,5,5,6,6,7,7,8,8,9,9,10,10,11,11,12,12,13,13],"right_children":[2,4,6,8,10,12,14,16,18,20,22,24,26,28,-1,-1,-1,-1,-1,-1,-1,-1,-1,-1,-1,-1,-1,-1,-1],"split_conditions":[1E0,1E0,1.85E2,5.428882E-3,1E0,1E0,1.1111111E-3,1.3041317E0,0E0,1E0,3E0,1.9639935E-2,1E0,1.0298662E-3,-1.8305711E-1,-1.2014197E-4,5.5726495E-2,2.1989709E-2,-8.460879E-2,1.2043821E-1,3.3589315E-2,2.566192E-2,1.1400572E-1,-6.324425E-2,6.60946E-2,-8.594976E-2,-1.7993778E-1,-1.3141716E-1,2.9832182E-2],"split_indices":[7,14,9,11,19,14,11,13,6,23,10,11,26,11,0,0,0,0,0,0,0,0,0,0,0,0,0,0,0],"split_type":[0,0,0,0,0,0,0,0,0,0,0,0,0,0,0,0,0,0,0,0,0,0,0,0,0,0,0,0,0],"sum_hessian":[5.712632E2,4.0757227E2,1.6369093E2,2.4224481E2,1.6532747E2,1.1149682E2,5.2194103E1,1.785159E2,6.3728912E1,1.3049826E2,3.48292E1,6.2054043E1,4.944278E1,6.4330363E0,4.5761066E1,1.1909481E2,5.942109E1,2.3761013E1,3.99679E1,1.251815E2,5.316758E0,1.881586E1,1.601334E1,5.008319E1,1.1970853E1,2.6555346E1,2.2887436E1,2.4813776E0,3.9516587E0],"tree_param":{"num_deleted":"0","num_feature":"31","num_nodes":"29","size_leaf_vector":"1"}},{"base_weights":[2.0167937E-3,4.1627812E-1,-1.017817E0,1.2675145E-2,9.912406E-1,-7.67682E-1,-1.4728657E0,-3.5005796E-1,1.9708408E-1,1.3253032E-1,8.3390725E-1,-4.0035927E-1,-1.1987705E0,-1.5428492E0,1.2225241E-2,-7.413723E-2,2.6455242E-2,2.7760705E-2,-1.2342298E-1,6.2410083E-2,1.2515491E-1,-6.446381E-2,8.129139E-2,-1.4662778E-1,-4.1448638E-2,-1.6879295E-1,-5.761149E-2],"categories":[],"categories_nodes":[],"categories_segments":[],"categories_sizes":[],"default_left":[0,0,0,0,0,0,0,0,0,0,0,0,0,0,0,0,0,0,0,0,0,0,0,0,0,0,0],"id":2,"left_children":[1,3,5,7,9,11,13,15,17,-1,19,21,23,25,-1,-1,-1,-1,-1,-1,-1,-1,-1,-1,-1,-1,-1],"loss_changes":[2.383062E2,9.3071014E1,1.7415817E1,1.5901896E1,7.5895996E0,1.6500221E1,6.519005E0,1.9469406E1,1.8501978E1,0E0,9.309593E0,1.8128805E1,9.637459E0,6.6571045E0,0E0,0E0,0E0,0E0,0E0,0E0,0E0,0E0,0E0,0E0,0E0,0E0,0E0],"parents":[2147483647,0,0,1,1,2,2,3,3,4,4,5,5,6,6,7,7,8,8,10,10,11,11,12,12,13,13],"right_children":[2,4,6,8,10,12,14,16,18,-1,20,22,24,26,-1,-1,-1,-1,-1,-1,-1,-1,-1,-1,-1,-1,-1],"split_conditions":[1E0,1E0,1.85E2,5E0,3.15E2,1E0,2.1E1,7E2,1.3E1,1.3253032E-1,7E0,1E1,1E0,1E0,1.2225241E-2,-7.413723E-2,2.6455242E-2,2.7760705E-2,-1.2342298E-1,6.2410083E-2,1.2515491E-1,-6.446381E-2,8.129139E-2,-1.4662778E-1,-4.1448638E-2,-1.6879295E-1,-5.761149E-2],"split_indices":[7,14,9,1,5,14,10,5,10,0,10,10,19,18,0,0,0,0,0,0,0,0,0,0,0,0,0],"split_type":[0,0,0,0,0,0,0,0,0,0,0,0,0,0,0,0,0,0,0,0,0,0,0,0,0,0,0],"sum_hessian":[5.620652E2,4.0012454E2,1.6194066E2,2.3569627E2,1.6442825E2,1.0623276E2,5.5707897E1,7.91364E1,1.5655988E2,5.026919E1,1.14159065E2,5.8399937E1,4.783282E1,5.3397915E1,2.3099842E0,4.8225567E1,3.0910833E1,1.4898436E2,7.575524E0,7.764679E1,3.6512276E1,4.9002514E1,9.397423E0,3.501885E1,1.2813972E1,4.5781372E1,7.6165433E0],"tree_param":{"num_deleted":"0","num_feature":"31","num_nodes":"27","size_leaf_vector":"1"}},{"base_weights":[1.5270133E-2,-1.0189396E0,8.1427455E-1,-8.6987513E-1,-1.494153E0,8.9387536E-1,5.248626E-1,-9.818428E-1,3.388225E-2,-1.624413E-1,-6.822242E-1,7.000372E-1,1.110554E0,9.73126E-1,-4.288792E-2,-4.1908525E-2,-1.1224385E-1,1.0120442E-1,-3.6326107E-2,1.5158738E-1,-1.5177915E-1,9.794202E-2,4.5338895E-2,7.4135736E-2,1.2674788E-1,4.254634E-3,1.13621674E-1,7.6799266E-2,-3.7621163E-2],"categories":[],"categories_nodes":[],"categories_segments":[],"categories_sizes":[],"default_left":[0,0,0,0,0,0,0,0,0,0,0,0,0,0,0,0,0,0,0,0,0,0,0,0,0,0,0,0,0],"id":3,"left_children":[1,3,5,7,9,11,13,15,17,-1,19,21,23,25,27,-1,-1,-1,-1,-1,-1,-1,-1,-1,-1,-1,-1,-1,-1],"loss_changes":[4.716492E2,1.6322937E1,6.9486694E0,1.9438461E1,5.026932E0,9.769333E0,1.8335243E1,1.3032547E1,8.955136E0,0E0,2.0197165E1,8.875656E0,5.831009E0,6.0540924E0,9.119424E0,0E0,0E0,0E0,0E0,0E0,0E0,0E0,0E0,0E0,0E0,0E0,0E0,0E0,0E0],"parents":[2147483647,0,0,1,1,2,2,3,3,4,4,5,5,6,6,7,7,8,8,10,10,11,11,12,12,13,13,14,14],"right_children":[2,4,6,8,10,12,14,16,18,-1,20,22,24,26,28,-1,-1,-1,-1,-1,-1,-1,-1,-1,-1,-1,-1,-1,-1],"split_conditions":[2E0,6E0,1E0,2.2413794E-2,1.9639935E-2,3E0,4E0,4E0,-2.4E1,-1.624413E-1,2.037037E-2,1E0,6E0,4E0,1.25E2,-4.1908525E-2,-1.1224385E-1,1.0120442E-1,-3.6326107E-2,1.5158738E-1,-1.5177915E-1,9.794202E-2,4.5338895E-2,7.4135736E-2,1.2674788E-1,4.254634E-3,1.13621674E-1,7.6799266E-2,-3.7621163E-2],"split_indices":[8,0,19,11,11,8,0,1,6,0,11,26,1,1,9,0,0,0,0,0,0,0,0,0,0,0,0,0,0],"split_type":[0,0,0,0,0,0,0,0,0,0,0,0,0,0,0,0,0,0,0,0,0,0,0,0,0,0,0,0,0],"sum_hessian":[5.687661E2,2.4777612E2,3.2099E2,1.90767E2,5.7009113E1,2.5011028E2,7.087969E1,1.6966107E2,2.1105927E1,4.8265125E1,8.743991E0,1.3424608E2,1.158642E2,3.920872E1,3.1670973E1,3.4709873E1,1.349512E2,5.647602E0,1.5458325E1,2.1841187E0,6.5598717E0,6.1552986E1,7.26931E1,3.6265865E1,7.9598335E1,6.0349216E0,3.31738E1,8.846337E0,2.2824636E1],"tree_param":{"num_deleted":"0","num_feature":"31","num_nodes":"29","size_leaf_vector":"1"}},{"base_weights":[1.3622367E-2,-9.118495E-1,7.3414505E-1,-7.210535E-1,-1.2720577E0,7.6202655E-1,-1.6173284E-1,-8.4179056E-1,8.73291E-2,-9.6580243E-1,-1.5892011E-1,5.931753E-1,9.6637696E-1,-5.4026432E-2,-1.1498745E-1,3.7097383E-2,-1.304123E-1,-1.3957606E-1,-5.1127207E-2,8.1186645E-2,4.449259E-2,1.0625591E-1,4.9810495E-2],"categories":[],"categories_nodes":[],"categories_segments":[],"categories_sizes":[],"default_left":[0,0,0,0,0,0,0,0,0,0,0,0,0,0,0,0,0,0,0,0,0,0,0],"id":4,"left_children":[1,3,5,7,9,11,-1,13,15,17,-1,19,21,-1,-1,-1,-1,-1,-1,-1,-1,-1,-1],"loss_changes":[3.689892E2,1.5730576E1,2.1630035E1,1.5754585E1,6.4848633E0,1.0059433E1,0E0,1.2372971E1,9.081434E0,7.9937363E0,0E0,5.1931267E0,5.678528E0,0E0,0E0,0E0,0E0,0E0,0E0,0E0,0E0,0E0,0E0],"parents":[2147483647,0,0,1,1,2,2,3,3,4,4,5,5,7,7,8,8,9,9,11,11,12,12],"right_children":[2,4,6,8,10,12,-1,14,16,18,-1,20,22,-1,-1,-1,-1,-1,-1,-1,-1,-1,-1],"split_conditions":[2E0,8E0,5.35E2,1.9639935E-2,5.14E2,3E0,-1.6173284E-1,1.8518518E-3,1.9E1,3.69E2,-1.5892011E-1,6E0,1E0,-5.4026432E-2,-1.1498745E-1,3.7097383E-2,-1.304123E-1,-1.3957606E-1,-5.1127207E-2,8.1186645E-2,4.449259E-2,1.0625591E-1,4.9810495E-2],"split_indices":[8,1,9,11,3,8,0,11,4,3,0,1,19,0,0,0,0,0,0,0,0,0,0],"split_type":[0,0,0,0,0,0,0,0,0,0,0,0,0,0,0,0,0,0,0,0,0,0,0],"sum_hessian":[5.5134973E2,2.4123328E2,3.1011646E2,1.5966383E2,8.1569435E1,3.0715048E2,2.9659524E0,1.3887991E2,2.078393E1,4.355505E1,3.801438E1,1.7032042E2,1.3683008E2,7.1578545E1,6.730136E1,1.7873785E1,2.9101448E0,2.1318382E1,2.2236668E1,6.700343E1,1.03316986E2,1.12461586E2,2.4368492E1],"tree_param":{"num_deleted":"0","num_feature":"31","num_nodes":"23","size_leaf_vector":"1"}},{"base_weights":[-9.1944594E-4,3.0035722E-1,-7.5612485E-1,-1.1288516E-2,7.7669865E-1,-5.220841E-1,-1.2325574E0,-3.9081275E-1,1.3755861E-1,1.0078328E0,5.6456524E-1,-1.7174372E-1,-9.774993E-1,-1.3699208E0,-3.499488E-1,-1.3314119E-1,-1.8796619E-2,1.825797E-2,-1.438068E-1,1.220984E-1,7.6740846E-2,2.9801447E-2,1.0645409E-1,-3.7245215E-3,-1.3728313E-1,-5.5808127E-2,-1.4459439E-1,-1.4547525E-1,1.1934859E-2,7.4251E-2,-1.2473687E-1],"categories":[],"categories_nodes":[],"categories_segments":[],"categories_sizes":[],"default_left":[0,0,0,0,0,0,0,0,0,0,0,0,0,0,0,0,0,0,0,0,0,0,0,0,0,0,0,0,0,0,0],"id":5,"left_children":[1,3,5,7,9,11,13,15,17,19,21,23,25,27,29,-1,-1,-1,-1,-1,-1,-1,-1,-1,-1,-1,-1,-1,-1,-1,-1],"loss_changes":[1.25927155E2,5.8740616E1,1.6955345E1,1.362E1,7.1037292E0,1.6995527E1,5.7349014E0,1.2707236E1,1.2551303E1,2.8355637E0,1.0860094E1,9.966894E0,8.340797E0,5.7338257E0,9.010576E0,0E0,0E0,0E0,0E0,0E0,0E0,0E0,0E0,0E0,0E0,0E0,0E0,0E0,0E0,0E0,0E0],"parents":[2147483647,0,0,1,1,2,2,3,3,4,4,5,5,6,6,7,7,8,8,9,9,10,10,11,11,12,12,13,13,14,14],"right_children":[2,4,6,8,10,12,14,16,18,20,22,24,26,28,30,-1,-1,-1,-1,-1,-1,-1,-1,-1,-1,-1,-1,-1,-1,-1,-1],"split_conditions":[1E0,1E0,1.85E2,4.8E2,4.09E2,1E0,1E0,2E0,5.8E2,2E0,2.95E2,9.19E2,1E0,2.1E1,6E0,-1.3314119E-1,-1.8796619E-2,1.825797E-2,-1.438068E-1,1.220984E-1,7.6740846E-2,2.9801447E-2,1.0645409E-1,-3.7245215E-3,-1.3728313E-1,-5.5808127E-2,-1.4459439E-1,-1.4547525E-1,1.1934859E-2,7.4251E-2,-1.2473687E-1],"split_indices":[7,14,9,3,5,14,18,0,9,10,9,3,26,10,1,0,0,0,0,0,0,0,0,0,0,0,0,0,0,0,0],"split_type":[0,0,0,0,0,0,0,0,0,0,0,0,0,0,0,0,0,0,0,0,0,0,0,0,0,0,0,0,0,0,0],"sum_hessian":[5.514651E2,3.946345E2,1.5683058E2,2.3914833E2,1.5548616E2,1.06573616E2,5.0256966E1,6.691236E1,1.7223596E2,7.261555E1,8.2870605E1,6.101404E1,4.5559578E1,4.3010902E1,7.2460628E0,1.0883225E1,5.6029137E1,1.6831087E2,3.925101E0,3.6329082E1,3.628647E1,5.5094353E1,2.7776257E1,5.5796883E1,5.2171583E0,2.5193836E1,2.0365744E1,4.0714886E1,2.296017E0,3.345767E0,3.9002957E0],"tree_param":{"num_deleted":"0","num_feature":"31","num_nodes":"31","size_leaf_vector":"1"}},{"base_weights":[-5.1507447E-3,-8.1376344E-1,6.2294513E-1,-7.640712E-2,-8.8089424E-1,7.103338E-1,3.2292473E-1,-4.3260014E-1,9.1942996E-1,-9.732783E-1,-3.0887046E-1,7.462442E-1,-1.2567273E-1,4.3044207E-1,-1.4778171E-1,7.2443224E-2,-7.8410454E-2,1.5737323E-2,1.4213488E-1,-5.7175446E-2,-1.0794735E-1,1.4016886E-1,-4.840721E-2,5.949722E-2,9.272542E-2,-1.5499054E-1,7.9423465E-2,1.0056042E-1,2.7349401E-2],"categories":[],"categories_nodes":[],"categories_segments":[],"categories_sizes":[],"default_left":[0,0,0,0,0,0,0,0,0,0,0,0,0,0,0,0,0,0,0,0,0,0,0,0,0,0,0,0,0],"id":6,"left_children":[1,3,5,7,9,11,13,15,17,19,21,23,25,27,-1,-1,-1,-1,-1,-1,-1,-1,-1,-1,-1,-1,-1,-1,-1],"loss_changes":[2.750267E2,1.1650848E1,7.7614517E0,7.7932215E0,1.1160828E1,7.154701E0,1.4301849E1,7.090152E0,1.9996333E0,7.3250275E0,1.0155423E1,5.6271133E0,1.5043472E1,5.807496E0,0E0,0E0,0E0,0E0,0E0,0E0,0E0,0E0,0E0,0E0,0E0,0E0,0E0,0E0,0E0],"parents":[2147483647,0,0,1,1,2,2,3,3,4,4,5,5,6,6,7,7,8,8,9,9,10,10,11,11,12,12,13,13],"right_children":[2,4,6,8,10,12,14,16,18,20,22,24,26,28,-1,-1,-1,-1,-1,-1,-1,-1,-1,-1,-1,-1,-1,-1,-1],"split_conditions":[2E0,2.8E2,1E0,1.9E1,1.9639935E-2,3.181818E-2,4.15E2,-9.9E1,0E0,4E0,2.037037E-2,3E0,1E0,5.75E2,-1.4778171E-1,7.2443224E-2,-7.8410454E-2,1.5737323E-2,1.4213488E-1,-5.7175446E-2,-1.0794735E-1,1.4016886E-1,-4.840721E-2,5.949722E-2,9.272542E-2,-1.5499054E-1,7.9423465E-2,1.0056042E-1,2.7349401E-2],"split_indices":[8,3,19,4,11,11,9,6,6,1,11,8,14,3,0,0,0,0,0,0,0,0,0,0,0,0,0,0,0],"split_type":[0,0,0,0,0,0,0,0,0,0,0,0,0,0,0,0,0,0,0,0,0,0,0,0,0,0,0,0,0],"sum_hessian":[5.395142E2,2.3573393E2,3.0378024E2,1.9849346E1,2.158846E2,2.3419678E2,6.958348E1,1.5036612E1,4.812734E0,1.8526253E2,3.062207E1,2.2465419E2,9.542576E0,6.638102E1,3.2024634E0,3.2564716E0,1.178014E1,2.4327161E0,2.380018E0,4.008504E1,1.4517747E2,2.194631E0,2.8427439E1,1.2471524E2,9.993896E1,3.4760244E0,6.0665517E0,1.3071417E1,5.3309605E1],"tree_param":{"num_deleted":"0","num_feature":"31","num_nodes":"29","size_leaf_vector":"1"}},{"base_weights":[-2.2073176E-2,-7.783594E-1,5.5290323E-1,6.751196E-2,-8.620958E-1,5.848264E-1,-3.175097E-1,-1.20571844E-1,3.5522386E-1,-9.415658E-1,-2.4526343E-1,6.761974E-1,2.8904337E-1,-1.4912634E-1,5.1269394E-1,7.1185164E-2,-1.143919E-1,-1.04941726E-1,-4.979611E-2,1.2656261E-2,-1.3118461E-1,5.2313335E-2,8.5026555E-2,9.876073E-2,5.5270973E-3,-1.9035947E-2,7.496803E-2],"categories":[],"categories_nodes":[],"categories_segments":[],"categories_sizes":[],"default_left":[0,0,0,0,0,0,0,0,0,0,0,0,0,0,0,0,0,0,0,0,0,0,0,0,0,0,0],"id":7,"left_children":[1,3,5,7,9,11,13,-1,15,17,19,21,23,-1,25,-1,-1,-1,-1,-1,-1,-1,-1,-1,-1,-1,-1],"loss_changes":[2.308344E2,1.6296707E1,8.565819E0,8.332981E0,9.998566E0,7.676506E0,1.1793388E1,0E0,1.0637448E1,8.305084E0,1.0147765E1,5.4643326E0,1.1456638E1,0E0,1.3712015E0,0E0,0E0,0E0,0E0,0E0,0E0,0E0,0E0,0E0,0E0,0E0,0E0],"parents":[2147483647,0,0,1,1,2,2,3,3,4,4,5,5,6,6,8,8,9,9,10,10,11,11,12,12,14,14],"right_children":[2,4,6,8,10,12,14,-1,16,18,20,22,24,-1,26,-1,-1,-1,-1,-1,-1,-1,-1,-1,-1,-1,-1],"split_conditions":[2E0,2.8E2,2.909091E-2,2E0,2.2413794E-2,1E0,1E0,-1.20571844E-1,6E0,8.99E2,6E0,3E0,5.75E2,-1.4912634E-1,4.49E2,7.1185164E-2,-1.143919E-1,-1.04941726E-1,-4.979611E-2,1.2656261E-2,-1.3118461E-1,5.2313335E-2,8.5026555E-2,9.876073E-2,5.5270973E-3,-1.9035947E-2,7.496803E-2],"split_indices":[8,3,11,0,11,19,14,0,0,3,0,8,3,0,3,0,0,0,0,0,0,0,0,0,0,0,0],"split_type":[0,0,0,0,0,0,0,0,0,0,0,0,0,0,0,0,0,0,0,0,0,0,0,0,0,0,0],"sum_hessian":[5.2885114E2,2.2825964E2,3.005915E2,2.0578413E1,2.0768123E2,2.9027356E2,1.0317946E1,3.2048898E0,1.7373524E1,1.8351189E2,2.4169336E1,2.2078444E2,6.948911E1,3.9446635E0,6.373283E0,1.4459052E1,2.9144716E0,1.4652286E2,3.6989033E1,1.857512E1,5.594216E0,1.1961139E2,1.0117305E2,1.6615036E1,5.2874073E1,1.6563214E0,4.716962E0],"tree_param":{"num_deleted":"0","num_feature":"31","num_nodes":"27","size_leaf_vector":"1"}},{"base_weights":[1.0940017E-2,-7.108044E-1,5.4860085E-1,-5.766887E-1,-1.0779877E0,8.602896E-1,4.8961115E-1,2.039499E-1,-6.482566E-1,-1.4048906E-1,-7.2877747E-1,4.9352452E-1,1.0094209E0,-1.594768E-1,5.094236E-1,-1.1079388E-1,5.6180704E-2,-7.5195186E-2,-8.718871E-3,-8.697146E-3,-1.3548566E-1,7.089492E-2,-2.3396501E-2,1.0500014E-1,8.265448E-3,-2.7740715E-2,5.415998E-2],"categories":[],"categories_nodes":[],"categories_segments":[],"categories_sizes":[],"default_left":[0,0,0,0,0,0,0,0,0,0,0,0,0,0,0,0,0,0,0,0,0,0,0,0,0,0,0],"id":8,"left_children":[1,3,5,7,9,11,13,15,17,-1,19,21,23,-1,25,-1,-1,-1,-1,-1,-1,-1,-1,-1,-1,-1,-1],"loss_changes":[2.0425443E2,1.0444511E1,5.1247635E0,9.448162E0,5.7079697E0,2.055107E0,1.1382431E1,7.553698E0,8.835014E0,0E0,1.2173813E1,2.5873168E0,1.1253548E0,0E0,6.5884476E0,0E0,0E0,0E0,0E0,0E0,0E0,0E0,0E0,0E0,0E0,0E0,0E0],"parents":[2147483647,0,0,1,1,2,2,3,3,4,4,5,5,6,6,7,7,8,8,10,10,11,11,12,12,14,14],"right_children":[2,4,6,8,10,12,14,16,18,-1,20,22,24,-1,26,-1,-1,-1,-1,-1,-1,-1,-1,-1,-1,-1,-1],"split_conditions":[2E0,9E0,3.29E2,2.8E2,5E0,2.99E2,3.39E2,2E0,1.9639935E-2,-1.4048906E-1,6E0,1E1,1.5600624E-2,-1.594768E-1,2E0,-1.1079388E-1,5.6180704E-2,-7.5195186E-2,-8.718871E-3,-8.697146E-3,-1.3548566E-1,7.089492E-2,-2.3396501E-2,1.0500014E-1,8.265448E-3,-2.7740715E-2,5.415998E-2],"split_indices":[8,1,3,3,0,3,3,0,11,0,0,1,11,0,1,0,0,0,0,0,0,0,0,0,0,0,0],"split_type":[0,0,0,0,0,0,0,0,0,0,0,0,0,0,0,0,0,0,0,0,0,0,0,0,0,0,0],"sum_hessian":[5.2435126E2,2.2371669E2,3.0063455E2,1.6574721E2,5.7969486E1,4.568119E1,2.5495335E2,1.376403E1,1.5198317E2,2.837966E1,2.9589828E1,1.4450869E1,3.1230322E1,1.6520811E0,2.5330127E2,2.500665E0,1.1263366E1,1.2798844E2,2.3994728E1,1.5173792E1,1.4416037E1,1.1168986E1,3.2818823E0,2.9792805E1,1.4375175E0,9.651991E0,2.4364928E2],"tree_param":{"num_deleted":"0","num_feature":"31","num_nodes":"27","size_leaf_vector":"1"}},{"base_weights":[1.1344916E-3,-6.3327646E-1,4.7039297E-1,-5.0572103E-1,-1.0612425E0,3.832162E-1,7.510764E-1,-4.5423683E-2,-6.3416755E-1,-1.417061E-1,-8.35338E-1,8.101109E-1,2.720365E-1,6.4365774E-1,1.3755724E-1,-8.816871E-2,4.2219818E-2,-5.2971845E-3,-9.084272E-2,-3.9106138E-2,-1.279912E-1,4.874888E-2,9.865976E-2,7.794221E-3,5.2446403E-2,8.178563E-2,1.6830176E-2],"categories":[],"categories_nodes":[],"categories_segments":[],"categories_sizes":[],"default_left":[0,0,0,0,0,0,0,0,0,0,0,0,0,0,0,0,0,0,0,0,0,0,0,0,0,0,0],"id":9,"left_children":[1,3,5,7,9,11,13,15,17,-1,19,21,23,25,-1,-1,-1,-1,-1,-1,-1,-1,-1,-1,-1,-1,-1],"loss_changes":[1.5062181E2,1.1206543E1,6.82843E0,9.8824005E0,2.7134705E0,1.0408623E1,3.668129E0,1.5095565E1,2.0830719E1,0E0,5.838066E0,2.1249847E0,8.737992E0,4.8138885E0,0E0,0E0,0E0,0E0,0E0,0E0,0E0,0E0,0E0,0E0,0E0,0E0,0E0],"parents":[2147483647,0,0,1,1,2,2,3,3,4,4,5,5,6,6,7,7,8,8,10,10,11,11,12,12,13,13],"right_children":[2,4,6,8,10,12,14,16,18,-1,20,22,24,26,-1,-1,-1,-1,-1,-1,-1,-1,-1,-1,-1,-1,-1],"split_conditions":[2E0,6E0,8.19E2,4E0,1E0,3.29E2,1.2E1,4.69E2,3.15E2,-1.417061E-1,7E0,4E0,3E0,8E0,1.3755724E-1,-8.816871E-2,4.2219818E-2,-5.2971845E-3,-9.084272E-2,-3.9106138E-2,-1.279912E-1,4.874888E-2,9.865976E-2,7.794221E-3,5.2446403E-2,8.178563E-2,1.6830176E-2],"split_indices":[8,0,3,1,7,3,1,5,5,0,1,0,8,1,0,0,0,0,0,0,0,0,0,0,0,0,0],"split_type":[0,0,0,0,0,0,0,0,0,0,0,0,0,0,0,0,0,0,0,0,0,0,0,0,0,0,0],"sum_hessian":[5.0394638E2,2.1411946E2,2.8982693E2,1.666354E2,4.748406E1,2.2294753E2,6.687942E1,3.665025E1,1.2998515E2,1.639218E1,3.1091879E1,4.476762E1,1.781799E2,5.879658E1,8.082833E0,1.2826583E1,2.3823666E1,4.2055855E1,8.79293E1,1.649127E1,1.4600609E1,1.7160316E1,2.7607302E1,1.0146846E2,7.671144E1,4.250114E1,1.629544E1],"tree_param":{"num_deleted":"0","num_feature":"31","num_nodes":"27","size_leaf_vector":"1"}},{"base_weights":[-2.7415734E-2,1.5915728E-1,-5.1027805E-1,-6.9836825E-2,5.1150185E-1,-2.9265088E-1,-1.0008017E0,5.5880304E-2,-4.018374E-1,3.9286947E-1,9.21568E-1,8.638358E-2,-8.311082E-1,2.0133299E-1,-1.1762326E0,-1.346732E-1,9.141973E-3,4.2228397E-2,-6.1233338E-2,4.550222E-2,-6.1952084E-2,2.6533122E-3,9.6322104E-2,2.1881824E-2,-1.16240956E-1,6.7333453E-3,-1.06724024E-1,9.867431E-2,-9.147169E-2,-1.275429E-1,3.655543E-2],"categories":[],"categories_nodes":[],"categories_segments":[],"categories_sizes":[],"default_left":[0,0,0,0,0,0,0,0,0,0,0,0,0,0,0,0,0,0,0,0,0,0,0,0,0,0,0,0,0,0,0],"id":10,"left_children":[1,3,5,7,9,11,13,15,17,19,21,23,25,27,29,-1,-1,-1,-1,-1,-1,-1,-1,-1,-1,-1,-1,-1,-1,-1,-1],"loss_changes":[4.4532852E1,2.8813108E1,1.4412582E1,9.081767E0,6.478367E0,1.9834908E1,9.077633E0,8.014737E0,1.0621498E1,7.254032E0,1.1230087E0,9.802845E0,8.578686E0,6.3306193E0,6.0835075E0,0E0,0E0,0E0,0E0,0E0,0E0,0E0,0E0,0E0,0E0,0E0,0E0,0E0,0E0,0E0,0E0],"parents":[2147483647,0,0,1,1,2,2,3,3,4,4,5,5,6,6,7,7,8,8,9,9,10,10,11,11,12,12,13,13,14,14],"right_children":[2,4,6,8,10,12,14,16,18,20,22,24,26,28,30,-1,-1,-1,-1,-1,-1,-1,-1,-1,-1,-1,-1,-1,-1,-1,-1],"split_conditions":[1E0,1E0,1.85E2,5.428882E-3,1.8126888E-2,1E0,1.1111111E-3,2E0,2E0,1.3888889E-2,5.191357E-1,1.4457142E0,4E0,6E0,2.1E1,-1.346732E-1,9.141973E-3,4.2228397E-2,-6.1233338E-2,4.550222E-2,-6.1952084E-2,2.6533122E-3,9.6322104E-2,2.1881824E-2,-1.16240956E-1,6.7333453E-3,-1.06724024E-1,9.867431E-2,-9.147169E-2,-1.275429E-1,3.655543E-2],"split_indices":[7,14,9,11,11,14,11,12,12,11,13,13,1,1,10,0,0,0,0,0,0,0,0,0,0,0,0,0,0,0,0],"split_type":[0,0,0,0,0,0,0,0,0,0,0,0,0,0,0,0,0,0,0,0,0,0,0,0,0,0,0,0,0,0,0],"sum_hessian":[4.9241876E2,3.5566418E2,1.3675458E2,2.1605109E2,1.396131E2,9.583344E1,4.092114E1,1.5731357E2,5.873752E1,1.0980462E2,2.9808472E1,5.6735435E1,3.9098007E1,5.1924434E0,3.5728695E1,2.9757924E0,1.5433777E2,1.174562E1,4.6991898E1,1.0397211E2,5.8325124E0,1.3983297E0,2.8410143E1,5.2041233E1,4.694203E0,8.286011E0,3.0811998E1,3.1156754E0,2.0767677E0,3.3731236E1,1.9974579E0],"tree_param":{"num_deleted":"0","num_feature":"31","num_nodes":"31","size_leaf_vector":"1"}},{"base_weights":[4.151874E-3,1.771992E-1,-4.9464357E-1,1.9518866E-1,-9.3446475E-1,-2.7061495E-1,-9.6883905E-1,1.1980619E-1,5.5924463E-1,3.8653433E-2,-1.3383278E-1,-3.5694212E-1,9.291497E-1,6.114828E-2,-1.1375419E0,3.212601E-2,1.3777994E-3,6.885003E-2,1.0482658E-2,3.9555427E-2,-5.0220918E-2,1.7895061E-1,-8.50297E-2,-9.362187E-2,6.59268E-2,-1.23807706E-1,3.6025465E-2],"categories":[],"categories_nodes":[],"categories_segments":[],"categories_sizes":[],"default_left":[0,0,0,0,0,0,0,0,0,0,0,0,0,0,0,0,0,0,0,0,0,0,0,0,0,0,0],"id":11,"left_children":[1,3,5,7,9,11,13,15,17,-1,-1,19,21,23,25,-1,-1,-1,-1,-1,-1,-1,-1,-1,-1,-1,-1],"loss_changes":[4.323745E1,7.6194124E0,1.3444689E1,9.998937E0,3.768979E0,9.551136E0,7.195713E0,6.513328E0,3.6074848E0,0E0,0E0,9.354969E0,1.1094004E1,4.6265106E0,5.760067E0,0E0,0E0,0E0,0E0,0E0,0E0,0E0,0E0,0E0,0E0,0E0,0E0],"parents":[2147483647,0,0,1,1,2,2,3,3,4,4,5,5,6,6,7,7,8,8,11,11,12,12,13,13,14,14],"right_children":[2,4,6,8,10,12,14,16,18,-1,-1,20,22,24,26,-1,-1,-1,-1,-1,-1,-1,-1,-1,-1,-1,-1],"split_conditions":[1E0,5.8E2,1.85E2,8.29E2,1E0,1E0,1.1111111E-3,3.15E2,4E0,3.8653433E-2,-1.3383278E-1,2.8E2,2E1,5E0,2.1E1,3.212601E-2,1.3777994E-3,6.885003E-2,1.0482658E-2,3.9555427E-2,-5.0220918E-2,1.7895061E-1,-8.50297E-2,-9.362187E-2,6.59268E-2,-1.23807706E-1,3.6025465E-2],"split_indices":[7,9,9,5,15,29,11,5,10,0,0,3,9,0,10,0,0,0,0,0,0,0,0,0,0,0,0],"split_type":[0,0,0,0,0,0,0,0,0,0,0,0,0,0,0,0,0,0,0,0,0,0,0,0,0,0,0],"sum_hessian":[4.9890952E2,3.7088348E2,1.2802603E2,3.6578854E2,5.094944E0,8.801497E1,4.0011055E1,3.0414127E2,6.1647274E1,1.2029879E0,3.8919559E0,8.276242E1,5.2525496E0,5.7208557E0,3.42902E1,1.0417621E2,1.9996507E2,4.7594315E1,1.4052957E1,1.3112995E1,6.964943E1,3.5368443E0,1.7157053E0,1.9327378E0,3.7881176E0,3.2295837E1,1.9943612E0],"tree_param":{"num_deleted":"0","num_feature":"31","num_nodes":"27","size_leaf_vector":"1"}},{"base_weights":[4.5058434E-3,-5.583035E-1,4.0613532E-1,-6.489781E-1,-2.8073432E-2,2.894373E-1,5.6252986E-1,-7.1602815E-1,1.492312E-1,1.4847682E-1,-1.949741E-1,2.3102199E-1,1.0068935E0,5.8929694E-1,-6.696401E-2,-3.011152E-2,-8.507883E-2,8.290756E-2,-1.15394704E-1,7.5363778E-3,-1.16251074E-1,2.62183E-2,-6.089296E-2,1.1813805E-1,2.6849095E-2,1.06208675E-1,5.19347E-2],"categories":[],"categories_nodes":[],"categories_segments":[],"categories_sizes":[],"default_left":[0,0,0,0,0,0,0,0,0,0,0,0,0,0,0,0,0,0,0,0,0,0,0,0,0,0,0],"id":12,"left_children":[1,3,5,7,9,11,13,15,17,-1,19,21,23,25,-1,-1,-1,-1,-1,-1,-1,-1,-1,-1,-1,-1,-1],"loss_changes":[1.1034608E2,9.755917E0,5.0363235E0,9.395882E0,8.049591E0,6.6909494E0,4.3745346E0,8.705933E0,1.3605591E1,0E0,7.558851E0,4.1919527E0,1.2469568E0,3.3719292E0,0E0,0E0,0E0,0E0,0E0,0E0,0E0,0E0,0E0,0E0,0E0,0E0,0E0],"parents":[2147483647,0,0,1,1,2,2,3,3,4,4,5,5,6,6,7,7,8,8,10,10,11,11,12,12,13,13],"right_children":[2,4,6,8,10,12,14,16,18,-1,20,22,24,26,-1,-1,-1,-1,-1,-1,-1,-1,-1,-1,-1,-1,-1],"split_conditions":[2E0,1.9639935E-2,3E0,1E0,2.037037E-2,1.9E1,1E0,2.7E2,3E0,1.4847682E-1,6E0,7.2E2,1.25E-3,3E2,-6.696401E-2,-3.011152E-2,-8.507883E-2,8.290756E-2,-1.15394704E-1,7.5363778E-3,-1.16251074E-1,2.62183E-2,-6.089296E-2,1.1813805E-1,2.6849095E-2,1.06208675E-1,5.19347E-2],"split_indices":[8,11,8,29,11,12,23,5,10,0,0,4,11,3,0,0,0,0,0,0,0,0,0,0,0,0,0],"split_type":[0,0,0,0,0,0,0,0,0,0,0,0,0,0,0,0,0,0,0,0,0,0,0,0,0,0,0],"sum_hessian":[4.8616568E2,2.0229567E2,2.8387E2,1.725619E2,2.9733765E1,1.641991E2,1.1967091E2,1.5928484E2,1.327706E1,2.1698074E0,2.7563957E1,1.5305902E2,1.1140067E1,1.1763716E2,2.0337522E0,3.9843884E1,1.19440956E2,8.9643345E0,4.3127255E0,2.226503E1,5.2989287E0,1.4824712E2,4.8119E0,8.525539E0,2.6145275E0,1.3333413E1,1.0430375E2],"tree_param":{"num_deleted":"0","num_feature":"31","num_nodes":"27","size_leaf_vector":"1"}},{"base_weights":[-1.4308223E-2,-5.843092E-1,3.8631478E-1,-4.4796872E-1,-1.053276E0,5.28518E-1,2.6929522E-1,8.979228E-3,-6.0298115E-1,-1.1919904E0,-3.288538E-1,4.654646E-1,1.2011372E0,1.5512119E-1,6.561006E-1,4.4954803E-2,-7.7799186E-2,-7.110774E-2,3.8417686E-2,-1.3009214E-1,-1.4764552E-2,1.3797131E-1,-1.13748305E-1,-2.805807E-2,5.0246954E-2,3.286406E-2,1.2766083E-1,-1.841145E-3,3.814962E-2,7.132181E-2,-2.3129677E-2],"categories":[],"categories_nodes":[],"categories_segments":[],"categories_sizes":[],"default_left":[0,0,0,0,0,0,0,0,0,0,0,0,0,0,0,0,0,0,0,0,0,0,0,0,0,0,0,0,0,0,0],"id":13,"left_children":[1,3,5,7,9,11,13,15,17,19,21,23,25,27,29,-1,-1,-1,-1,-1,-1,-1,-1,-1,-1,-1,-1,-1,-1,-1,-1],"loss_changes":[1.1037411E2,1.2283325E1,4.5813637E0,1.1076256E1,4.0488853E0,4.831566E0,6.86543E0,1.4417973E1,1.272813E1,3.984108E0,1.328987E1,3.3943443E0,2.5614262E-1,4.843461E0,1.9716282E0,0E0,0E0,0E0,0E0,0E0,0E0,0E0,0E0,0E0,0E0,0E0,0E0,0E0,0E0,0E0,0E0],"parents":[2147483647,0,0,1,1,2,2,3,3,4,4,5,5,6,6,7,7,8,8,9,9,10,10,11,11,12,12,13,13,14,14],"right_children":[2,4,6,8,10,12,14,16,18,20,22,24,26,28,30,-1,-1,-1,-1,-1,-1,-1,-1,-1,-1,-1,-1,-1,-1,-1,-1],"split_conditions":[2E0,6E0,1.1E2,2.8E2,1.9639935E-2,1E1,4E0,8E0,1E0,1E0,2.037037E-2,2E0,4E0,2.85E2,5.8E2,4.4954803E-2,-7.7799186E-2,-7.110774E-2,3.8417686E-2,-1.3009214E-1,-1.4764552E-2,1.3797131E-1,-1.13748305E-1,-2.805807E-2,5.0246954E-2,3.286406E-2,1.2766083E-1,-1.841145E-3,3.814962E-2,7.132181E-2,-2.3129677E-2],"split_indices":[8,0,9,5,11,10,12,1,29,18,11,1,1,9,9,0,0,0,0,0,0,0,0,0,0,0,0,0,0,0,0],"split_type":[0,0,0,0,0,0,0,0,0,0,0,0,0,0,0,0,0,0,0,0,0,0,0,0,0,0,0,0,0,0,0],"sum_hessian":[4.8135483E2,1.9848895E2,2.828659E2,1.5529576E2,4.3193184E1,1.2610521E2,1.5676068E2,3.957578E1,1.15719986E2,3.5709908E1,7.4832764E0,1.1684391E2,9.261298E0,1.221164E2,3.464428E1,2.5646755E1,1.3929022E1,1.0455107E2,1.1168918E1,3.2114502E1,3.5954027E0,2.1770701E0,5.306206E0,5.2106853E0,1.11633224E2,1.1636169E0,8.097681E0,6.964625E1,5.247016E1,3.2733654E1,1.9106274E0],"tree_param":{"num_deleted":"0","num_feature":"31","num_nodes":"31","size_leaf_vector":"1"}},{"base_weights":[5.6012984E-2,-4.4431642E-1,4.0530953E-1,-3.2090166E-1,-8.968418E-1,3.0205354E-1,5.455889E-1,-4.2253685E-1,4.0129086E-1,-1.0167127E0,-2.1792695E-1,2.5844616E-1,8.399438E-1,9.07801E-1,3.8203073E-1,-2.9720446E-2,-1.0924971E-1,1.12946264E-1,3.4231339E-3,-1.115598E-1,-2.646935E-3,1.2908518E-1,-1.0748464E-1,8.5090584E-4,3.8866013E-2,9.869954E-2,2.1736776E-2,9.69032E-2,-3.00505E-2,2.5521427E-2,8.780614E-2],"categories":[],"categories_nodes":[],"categories_segments":[],"categories_sizes":[],"default_left":[0,0,0,0,0,0,0,0,0,0,0,0,0,0,0,0,0,0,0,0,0,0,0,0,0,0,0,0,0,0,0],"id":14,"left_children":[1,3,5,7,9,11,13,15,17,19,21,23,25,27,29,-1,-1,-1,-1,-1,-1,-1,-1,-1,-1,-1,-1,-1,-1,-1,-1],"loss_changes":[8.313121E1,1.063689E1,3.8914185E0,1.1565221E1,3.1443672E0,3.6189995E0,6.613682E0,1.1144236E1,5.217841E0,3.385952E0,1.1057751E1,4.9671354E0,8.675852E-1,2.9415798E0,4.9761353E0,0E0,0E0,0E0,0E0,0E0,0E0,0E0,0E0,0E0,0E0,0E0,0E0,0E0,0E0,0E0,0E0],"parents":[2147483647,0,0,1,1,2,2,3,3,4,4,5,5,6,6,7,7,8,8,9,9,10,10,11,11,12,12,13,13,14,14],"right_children":[2,4,6,8,10,12,14,16,18,20,22,24,26,28,30,-1,-1,-1,-1,-1,-1,-1,-1,-1,-1,-1,-1,-1,-1,-1,-1],"split_conditions":[2E0,6E0,3E0,2.2413794E-2,1.9639935E-2,1.9E1,3E2,9.1743115E-3,1.05E2,1E0,2.037037E-2,2.2701477E-3,3.5E1,1.1E1,1.049E3,-2.9720446E-2,-1.0924971E-1,1.12946264E-1,3.4231339E-3,-1.115598E-1,-2.646935E-3,1.2908518E-1,-1.0748464E-1,8.5090584E-4,3.8866013E-2,9.869954E-2,2.1736776E-2,9.69032E-2,-3.00505E-2,2.5521427E-2,8.780614E-2],"split_indices":[8,0,8,11,11,12,5,11,9,18,11,11,9,10,3,0,0,0,0,0,0,0,0,0,0,0,0,0,0,0,0],"split_type":[0,0,0,0,0,0,0,0,0,0,0,0,0,0,0,0,0,0,0,0,0,0,0,0,0,0,0,0,0,0,0],"sum_hessian":[4.7364835E2,1.9461354E2,2.790348E2,1.5425386E2,4.0359673E1,1.6254378E2,1.1649102E2,1.3558737E2,1.8666481E1,3.3880154E1,6.47952E0,1.5172383E2,1.0819944E1,3.482285E1,8.1668175E1,1.154359E2,2.0151478E1,5.5598364E0,1.3106645E1,3.0688978E1,3.1911757E0,2.1636293E0,4.315891E0,5.2335213E1,9.938862E1,8.279093E0,2.5408514E0,3.3331783E1,1.4910657E0,6.6246056E1,1.5422121E1],"tree_param":{"num_deleted":"0","num_feature":"31","num_nodes":"31","size_leaf_vector":"1"}},{"base_weights":[-1.6559066E-2,-4.9500635E-1,3.165651E-1,-3.5005143E-1,-9.290257E-1,2.8736013E-1,8.279754E-1,-2.2766572E-1,-8.5084945E-1,-1.24853946E-1,-5.744613E-1,2.2421801E-1,5.1415575E-1,3.655844E-1,1.0296478E0,4.0725436E-2,-3.0611038E-2,-1.2168073E-1,-2.8133387E-2,-9.850207E-4,-1.1856835E-1,2.5117764E-2,-1.799296E-1,7.20374E-2,-3.1365957E-2,-7.2181583E-3,8.823653E-2,1.0909181E-1,3.2180037E-2],"categories":[],"categories_nodes":[],"categories_segments":[],"categories_sizes":[],"default_left":[0,0,0,0,0,0,0,0,0,0,0,0,0,0,0,0,0,0,0,0,0,0,0,0,0,0,0,0,0],"id":15,"left_children":[1,3,5,7,9,11,13,15,17,-1,19,21,23,25,27,-1,-1,-1,-1,-1,-1,-1,-1,-1,-1,-1,-1,-1,-1],"loss_changes":[7.400903E1,1.1665237E1,3.8511581E0,8.661251E0,4.619961E0,3.6154594E0,9.531994E-1,5.975256E0,5.4950294E0,0E0,8.334013E0,1.166579E1,9.77932E0,1.3940858E0,5.5654526E-2,0E0,0E0,0E0,0E0,0E0,0E0,0E0,0E0,0E0,0E0,0E0,0E0,0E0,0E0],"parents":[2147483647,0,0,1,1,2,2,3,3,4,4,5,5,6,6,7,7,8,8,10,10,11,11,12,12,13,13,14,14],"right_children":[2,4,6,8,10,12,14,16,18,-1,20,22,24,26,28,-1,-1,-1,-1,-1,-1,-1,-1,-1,-1,-1,-1,-1,-1],"split_conditions":[2E0,9E0,1.9E1,6E0,5E0,1.5576324E-2,6.39E2,2.8E2,6.8965517E-3,-1.24853946E-1,5.14E2,1.3888889E-2,1.9E1,1E0,1.1E2,4.0725436E-2,-3.0611038E-2,-1.2168073E-1,-2.8133387E-2,-9.850207E-4,-1.1856835E-1,2.5117764E-2,-1.799296E-1,7.20374E-2,-3.1365957E-2,-7.2181583E-3,8.823653E-2,1.0909181E-1,3.2180037E-2],"split_indices":[8,1,12,0,0,11,3,3,11,0,3,11,4,14,4,0,0,0,0,0,0,0,0,0,0,0,0,0,0],"split_type":[0,0,0,0,0,0,0,0,0,0,0,0,0,0,0,0,0,0,0,0,0,0,0,0,0,0,0,0,0],"sum_hessian":[4.623658E2,1.8958693E2,2.7277887E2,1.4347523E2,4.61117E1,2.5952042E2,1.3258461E1,1.1646738E2,2.7007853E1,2.2928492E1,2.3183208E1,2.0455807E2,5.496234E1,4.8807425E0,8.377718E0,1.234633E1,1.0412105E2,1.57504225E1,1.1257429E1,1.2579304E1,1.0603904E1,2.027329E2,1.8251745E0,4.4105057E1,1.0857284E1,3.108149E0,1.7725935E0,7.2122574E0,1.1654606E0],"tree_param":{"num_deleted":"0","num_feature":"31","num_nodes":"29","size_leaf_vector":"1"}},{"base_weights":[2.4435446E-2,-4.0082362E-1,3.0955872E-1,-6.848817E-1,-2.2532968E-1,3.2416812E-1,-7.2670966E-1,-1.341832E-1,-9.799407E-1,5.8136665E-4,-8.056975E-1,2.5433317E-1,5.6220925E-1,-1.2686704E-1,3.3578373E-2,-4.1046206E-2,8.189182E-2,-3.451133E-3,-1.22600175E-1,-5.752914E-3,1.29048E-1,2.9272897E-2,-1.0153387E-1,3.9020076E-2,8.2749305E-3,7.875963E-2,6.190573E-3],"categories":[],"categories_nodes":[],"categories_segments":[],"categories_sizes":[],"default_left":[0,0,0,0,0,0,0,0,0,0,0,0,0,0,0,0,0,0,0,0,0,0,0,0,0,0,0],"id":16,"left_children":[1,3,5,7,9,11,13,15,17,19,21,23,25,-1,-1,-1,-1,-1,-1,-1,-1,-1,-1,-1,-1,-1,-1],"loss_changes":[5.5330444E1,8.977282E0,4.370493E0,1.1155369E1,1.5041239E1,4.3457146E0,2.7900596E0,7.0224023E0,1.0442585E1,6.3386717E0,7.6990433E0,4.8773184E0,6.764551E0,0E0,0E0,0E0,0E0,0E0,0E0,0E0,0E0,0E0,0E0,0E0,0E0,0E0,0E0],"parents":[2147483647,0,0,1,1,2,2,3,3,4,4,5,5,6,6,7,7,8,8,9,9,10,10,11,11,12,12],"right_children":[2,4,6,8,10,12,14,16,18,20,22,24,26,-1,-1,-1,-1,-1,-1,-1,-1,-1,-1,-1,-1,-1,-1],"split_conditions":[2E0,1E0,5.8E2,4E0,1.85E2,2.9E2,1.4E1,8.59E2,2E2,1.7E2,1.1111111E-3,1.1E2,5E0,-1.2686704E-1,3.3578373E-2,-4.1046206E-2,8.189182E-2,-3.451133E-3,-1.22600175E-1,-5.752914E-3,1.29048E-1,2.9272897E-2,-1.0153387E-1,3.9020076E-2,8.2749305E-3,7.875963E-2,6.190573E-3],"split_indices":[8,7,9,1,9,9,10,5,5,9,11,9,0,0,0,0,0,0,0,0,0,0,0,0,0,0,0],"split_type":[0,0,0,0,0,0,0,0,0,0,0,0,0,0,0,0,0,0,0,0,0,0,0,0,0,0,0],"sum_hessian":[4.5430554E2,1.821799E2,2.7212564E2,6.84625E1,1.137174E2,2.6902014E2,3.1054864E0,2.4392004E1,4.4070496E1,8.257404E1,3.1143358E1,2.095981E2,5.942205E1,1.9279964E0,1.17749E0,1.9351776E1,5.040227E0,9.336711E0,3.4733784E1,7.992862E1,2.6454196E0,4.927758E0,2.62156E1,1.16262375E2,9.333572E1,4.057069E1,1.8851362E1],"tree_param":{"num_deleted":"0","num_feature":"31","num_nodes":"27","size_leaf_vector":"1"}},{"base_weights":[9.2644235E-3,-3.812221E-1,2.7235478E-1,-2.7112222E-1,-8.029411E-1,-1.9961293E-1,3.172736E-1,-9.537384E-2,-7.966719E-1,-5.178423E-1,-1.1603349E-1,-1.7102891E0,2.3215131E-1,2.439054E-1,5.984253E-1,-2.9607559E-2,4.7050424E-2,5.2566405E-2,-9.800084E-2,-8.999614E-2,2.6916955E-2,1.8210417E-2,-2.4908851E-1,4.989805E-2,-6.1526954E-2,2.8411904E-2,-6.746571E-2,7.185971E-2,-2.8357519E-2],"categories":[],"categories_nodes":[],"categories_segments":[],"categories_sizes":[],"default_left":[0,0,0,0,0,0,0,0,0,0,0,0,0,0,0,0,0,0,0,0,0,0,0,0,0,0,0,0,0],"id":17,"left_children":[1,3,5,7,9,11,13,15,17,19,-1,21,23,25,27,-1,-1,-1,-1,-1,-1,-1,-1,-1,-1,-1,-1,-1,-1],"loss_changes":[4.6009136E1,8.153261E0,5.73551E0,1.32682085E1,3.1502228E0,1.5963039E1,4.9013615E0,1.2564559E1,9.259596E0,6.943853E0,0E0,8.466164E0,4.7028666E0,7.421975E0,5.498087E0,0E0,0E0,0E0,0E0,0E0,0E0,0E0,0E0,0E0,0E0,0E0,0E0,0E0,0E0],"parents":[2147483647,0,0,1,1,2,2,3,3,4,4,5,5,6,6,7,7,8,8,9,9,11,11,12,12,13,13,14,14],"right_children":[2,4,6,8,10,12,14,16,18,20,-1,22,24,26,28,-1,-1,-1,-1,-1,-1,-1,-1,-1,-1,-1,-1,-1,-1],"split_conditions":[2E0,6E0,-2.4E1,1E0,1E0,2E-3,8.19E2,5E0,-4E1,6.4102565E-3,-1.1603349E-1,5E0,1E0,7.68E2,5.1E2,-2.9607559E-2,4.7050424E-2,5.2566405E-2,-9.800084E-2,-8.999614E-2,2.6916955E-2,1.8210417E-2,-2.4908851E-1,4.989805E-2,-6.1526954E-2,2.8411904E-2,-6.746571E-2,7.185971E-2,-2.8357519E-2],"split_indices":[8,0,6,14,26,11,3,0,6,11,0,1,19,3,9,0,0,0,0,0,0,0,0,0,0,0,0,0,0],"split_type":[0,0,0,0,0,0,0,0,0,0,0,0,0,0,0,0,0,0,0,0,0,0,0,0,0,0,0,0,0],"sum_hessian":[4.458399E2,1.7928732E2,2.6655258E2,1.4347311E2,3.5814205E1,2.2864853E1,2.4368773E2,1.0840351E2,3.50696E1,2.1284307E1,1.4529899E1,4.424177E0,1.8440676E1,1.9473738E2,4.8950344E1,8.037385E1,2.8029661E1,4.0428505E0,3.102675E1,1.4231128E1,7.0531793E0,1.5159006E0,2.9082766E0,1.4337404E1,4.103271E0,1.8723131E2,7.5060873E0,4.32437E1,5.706646E0],"tree_param":{"num_deleted":"0","num_feature":"31","num_nodes":"29","size_leaf_vector":"1"}},{"base_weights":[-6.483318E-3,-3.5780132E-1,2.3282942E-1,-2.3816846E-1,-7.428814E-1,1.6146031E-1,5.4228926E-1,-3.4300873E-1,2.1204105E-1,-1.1903192E-1,-3.0240363E-1,1.8371014E-1,-1.724823E-1,-3.5027912E-1,6.516088E-1,-1.4662025E-2,-9.52274E-2,1.7532067E-1,-2.0539116E-2,3.1702798E-2,-1.1162883E-1,1.0629882E-2,4.881796E-2,6.146378E-2,-1.1569711E-1,7.5755924E-2,-2.0126795E-2],"categories":[],"categories_nodes":[],"categories_segments":[],"categories_sizes":[],"default_left":[0,0,0,0,0,0,0,0,0,0,0,0,0,0,0,0,0,0,0,0,0,0,0,0,0,0,0],"id":18,"left_children":[1,3,5,7,9,11,13,15,17,-1,19,21,-1,23,25,-1,-1,-1,-1,-1,-1,-1,-1,-1,-1,-1,-1],"loss_changes":[3.7175514E1,8.076305E0,5.7216463E0,6.5938764E0,7.916275E0,9.3469925E0,4.996622E0,1.3314773E1,1.754618E1,0E0,1.1697988E1,4.9814615E0,0E0,5.3679357E0,4.1181355E0,0E0,0E0,0E0,0E0,0E0,0E0,0E0,0E0,0E0,0E0,0E0,0E0],"parents":[2147483647,0,0,1,1,2,2,3,3,4,4,5,5,6,6,7,7,8,8,10,10,11,11,13,13,14,14],"right_children":[2,4,6,8,10,12,14,16,18,-1,20,22,-1,24,26,-1,-1,-1,-1,-1,-1,-1,-1,-1,-1,-1,-1],"split_conditions":[2E0,9E0,1.1E1,8.99E2,1E0,1E0,3.6E2,6.19E2,9.19E2,-1.1903192E-1,5.14E2,4E0,-1.724823E-1,2E0,1.1E1,-1.4662025E-2,-9.52274E-2,1.7532067E-1,-2.0539116E-2,3.1702798E-2,-1.1162883E-1,1.0629882E-2,4.881796E-2,6.146378E-2,-1.1569711E-1,7.5755924E-2,-2.0126795E-2],"split_indices":[8,1,1,3,2,23,3,3,3,0,3,12,0,10,10,0,0,0,0,0,0,0,0,0,0,0,0],"split_type":[0,0,0,0,0,0,0,0,0,0,0,0,0,0,0,0,0,0,0,0,0,0,0,0,0,0,0],"sum_hessian":[4.4018063E2,1.781525E2,2.6202814E2,1.371596E2,4.0992897E1,2.1415941E2,4.786872E1,1.1144543E2,2.5714176E1,1.9491287E1,2.1501608E1,2.1255481E2,1.6046021E0,4.982622E0,4.2886097E1,8.521739E1,2.6228033E1,4.7984076E0,2.0915768E1,1.2555977E1,8.945631E0,1.7054332E2,4.2011486E1,2.3772151E0,2.605407E0,3.8246593E1,4.639502E0],"tree_param":{"num_deleted":"0","num_feature":"31","num_nodes":"27","size_leaf_vector":"1"}},{"base_weights":[-1.0332242E-2,-3.4754384E-1,2.1510379E-1,-2.3264158E-1,-7.153264E-1,5.917053E-1,1.496559E-1,4.238078E-1,-3.1571534E-1,-8.7122506E-1,2.2757907E-1,-2.0457229E-1,6.509625E-1,-6.97408E-1,1.9996098E-1,-8.204403E-2,5.9374195E-2,-4.505349E-2,1.4881685E-2,-1.1721706E-1,-3.2313377E-2,5.4062556E-2,-6.731632E-2,-5.0800383E-2,2.331646E-2,7.3734015E-2,9.025729E-3,-1.8765882E-1,-1.2019247E-2,2.3143081E-2,-4.267026E-2],"categories":[],"categories_nodes":[],"categories_segments":[],"categories_sizes":[],"default_left":[0,0,0,0,0,0,0,0,0,0,0,0,0,0,0,0,0,0,0,0,0,0,0,0,0,0,0,0,0,0,0],"id":19,"left_children":[1,3,5,7,9,11,13,15,17,19,21,23,25,27,29,-1,-1,-1,-1,-1,-1,-1,-1,-1,-1,-1,-1,-1,-1,-1,-1],"loss_changes":[3.2962704E1,7.174906E0,6.317465E0,7.433126E0,6.206394E0,1.9328804E0,9.631659E0,3.7565918E0,7.544009E0,5.4405727E0,2.2226598E0,5.704042E-1,1.6643658E0,8.425707E0,4.2608795E0,0E0,0E0,0E0,0E0,0E0,0E0,0E0,0E0,0E0,0E0,0E0,0E0,0E0,0E0,0E0,0E0],"parents":[2147483647,0,0,1,1,2,2,3,3,4,4,5,5,6,6,7,7,8,8,9,9,10,10,11,11,12,12,13,13,14,14],"right_children":[2,4,6,8,10,12,14,16,18,20,22,24,26,28,30,-1,-1,-1,-1,-1,-1,-1,-1,-1,-1,-1,-1,-1,-1,-1,-1],"split_conditions":[2E0,9E0,3.29E2,2.8E2,1E0,-2.4E1,3.6E2,1.3E2,8.99E2,1.9E1,1.9E1,1E1,1E1,1E0,2.909091E-2,-8.204403E-2,5.9374195E-2,-4.505349E-2,1.4881685E-2,-1.1721706E-1,-3.2313377E-2,5.4062556E-2,-6.731632E-2,-5.0800383E-2,2.331646E-2,7.3734015E-2,9.025729E-3,-1.8765882E-1,-1.2019247E-2,2.3143081E-2,-4.267026E-2],"split_indices":[8,1,3,3,23,6,3,3,3,4,4,1,1,14,11,0,0,0,0,0,0,0,0,0,0,0,0,0,0,0,0],"split_type":[0,0,0,0,0,0,0,0,0,0,0,0,0,0,0,0,0,0,0,0,0,0,0,0,0,0,0,0,0,0,0],"sum_hessian":[4.316243E2,1.727219E2,2.589024E2,1.3284969E2,3.9872208E1,3.714146E1,2.2176094E2,1.4462822E1,1.1838686E2,3.428036E1,5.591845E0,2.402687E0,3.4738773E1,1.1710454E1,2.1005049E2,1.2779263E0,1.31848955E1,9.1780014E1,2.6606852E1,2.1394466E1,1.2885896E1,4.4463487E0,1.1454966E0,1.3242306E0,1.0784565E0,2.9828598E1,4.9101734E0,3.1086867E0,8.601768E0,2.0060707E2,9.443407E0],"tree_param":{"num_deleted":"0","num_feature":"31","num_nodes":"31","size_leaf_vector":"1"}},{"base_weights":[2.0957561E-2,-2.6961243E-1,2.1266691E-1,-1.4814106E-1,-7.4613196E-1,2.3507786E-1,-9.962546E-1,3.5326596E-2,-4.205056E-1,-1.0044901E0,-2.5934052E-1,3.194552E-1,-4.0486988E-2,-1.582982E-1,4.9076054E-2,-1.2737185E-2,7.000988E-2,-1.8278634E-2,-1.1296083E-1,-1.1572262E-1,9.623694E-3,8.6336575E-2,-6.814197E-2,1.6762394E-2,5.0667126E-2,1.4609444E-2,-1.19164445E-1],"categories":[],"categories_nodes":[],"categories_segments":[],"categories_sizes":[],"default_left":[0,0,0,0,0,0,0,0,0,0,0,0,0,0,0,0,0,0,0,0,0,0,0,0,0,0,0],"id":20,"left_children":[1,3,5,7,9,11,13,15,17,19,21,23,25,-1,-1,-1,-1,-1,-1,-1,-1,-1,-1,-1,-1,-1,-1],"loss_changes":[2.4359163E1,9.95292E0,7.370577E0,7.0001154E0,4.1499157E0,6.0447607E0,5.126128E0,9.222828E0,9.29078E0,3.9044018E0,6.9888473E0,5.5636616E0,1.3426284E1,0E0,0E0,0E0,0E0,0E0,0E0,0E0,0E0,0E0,0E0,0E0,0E0,0E0,0E0],"parents":[2147483647,0,0,1,1,2,2,3,3,4,4,5,5,6,6,7,7,8,8,9,9,10,10,11,11,12,12],"right_children":[2,4,6,8,10,12,14,16,18,20,22,24,26,-1,-1,-1,-1,-1,-1,-1,-1,-1,-1,-1,-1,-1,-1],"split_conditions":[2E0,6E0,5.35E2,1.35E2,5.75E2,1E0,7E2,9.5E1,8E0,1E0,6.19E2,3E0,4E0,-1.582982E-1,4.9076054E-2,-1.2737185E-2,7.000988E-2,-1.8278634E-2,-1.1296083E-1,-1.1572262E-1,9.623694E-3,8.6336575E-2,-6.814197E-2,1.6762394E-2,5.0667126E-2,1.4609444E-2,-1.19164445E-1],"split_indices":[8,0,9,9,5,19,9,9,1,27,3,8,8,0,0,0,0,0,0,0,0,0,0,0,0,0,0],"split_type":[0,0,0,0,0,0,0,0,0,0,0,0,0,0,0,0,0,0,0,0,0,0,0,0,0,0,0],"sum_hessian":[4.352595E2,1.7285712E2,2.6240237E2,1.3878882E2,3.406829E1,2.584174E2,3.9849846E0,8.344779E1,5.5341026E1,2.1561377E1,1.2506912E1,1.9771747E2,6.069992E1,2.8112292E0,1.1737554E0,6.768962E1,1.5758173E1,4.2388496E1,1.2952529E1,1.8889023E1,2.672355E0,3.1315808E0,9.375331E0,1.1022274E2,8.749473E1,5.29851E1,7.7148204E0],"tree_param":{"num_deleted":"0","num_feature":"31","num_nodes":"27","size_leaf_vector":"1"}},{"base_weights":[-3.718955E-2,-3.206712E-1,1.5268494E-1,-2.254288E-1,-9.952098E-1,3.5707974E-1,7.350832E-2,-1.0482924E-1,-6.123856E-1,-1.1806178E-1,-1.1377867E-1,8.004665E-2,6.653391E-1,-1.0213486E0,1.1416373E-1,-2.9564737E-3,-1.1645291E-1,-1.1328217E-1,-1.3958014E-2,1.3210592E-1,-9.0109125E-2,-3.779639E-2,4.6749156E-2,7.676678E-2,-1.7832402E-2,-1.8216388E-1,2.2692697E-2,-1.3600399E-1,1.4249605E-2],"categories":[],"categories_nodes":[],"categories_segments":[],"categories_sizes":[],"default_left":[0,0,0,0,0,0,0,0,0,0,0,0,0,0,0,0,0,0,0,0,0,0,0,0,0,0,0,0,0],"id":21,"left_children":[1,3,5,7,9,11,13,15,17,-1,19,21,23,25,27,-1,-1,-1,-1,-1,-1,-1,-1,-1,-1,-1,-1,-1,-1],"loss_changes":[2.2473776E1,1.0532631E1,4.02248E0,6.8431497E0,3.2033958E0,5.8899317E0,8.199311E0,9.062044E0,8.445013E0,0E0,6.4502497E0,6.8827147E0,2.968871E0,7.008614E0,7.5442147E0,0E0,0E0,0E0,0E0,0E0,0E0,0E0,0E0,0E0,0E0,0E0,0E0,0E0,0E0],"parents":[2147483647,0,0,1,1,2,2,3,3,4,4,5,5,6,6,7,7,8,8,10,10,11,11,12,12,13,13,14,14],"right_children":[2,4,6,8,10,12,14,16,18,-1,20,22,24,26,28,-1,-1,-1,-1,-1,-1,-1,-1,-1,-1,-1,-1,-1,-1],"split_conditions":[2E0,2.9E2,3.15E2,9E0,5.3E2,3E0,2E0,6E0,5E0,-1.1806178E-1,5.35E2,1E0,1E0,1.55E2,3.2E2,-2.9564737E-3,-1.1645291E-1,-1.1328217E-1,-1.3958014E-2,1.3210592E-1,-9.0109125E-2,-3.779639E-2,4.6749156E-2,7.676678E-2,-1.7832402E-2,-1.8216388E-1,2.2692697E-2,-1.3600399E-1,1.4249605E-2],"split_indices":[8,9,5,1,9,8,1,12,0,0,9,14,19,9,5,0,0,0,0,0,0,0,0,0,0,0,0,0,0],"split_type":[0,0,0,0,0,0,0,0,0,0,0,0,0,0,0,0,0,0,0,0,0,0,0,0,0,0,0,0,0],"sum_hessian":[4.1561725E2,1.6643773E2,2.4917953E2,1.4701408E2,1.9423655E1,6.859397E1,1.8058556E2,1.1305125E2,3.396283E1,1.5767538E1,3.6561158E0,3.6790222E1,3.180375E1,5.601952E0,1.7498361E2,1.0651405E2,6.5371933E0,1.5502565E1,1.8460264E1,1.0551758E0,2.60094E0,1.6870985E1,1.9919239E1,2.8443848E1,3.3599017E0,3.1336155E0,2.4683368E0,2.4132428E0,1.7257036E2],"tree_param":{"num_deleted":"0","num_feature":"31","num_nodes":"29","size_leaf_vector":"1"}},{"base_weights":[-1.3413374E-2,4.8946775E-2,-1.8045743E-1,7.0912324E-2,-1.4032622E-1,-3.2468073E-3,-5.3548306E-1,1.08376145E-1,-5.1836807E-1,-2.335205E-1,5.3622675E-1,-1.0512447E0,-1.0845282E-2,3.2429767E-3,5.673967E-2,1.2740214E-2,-1.4612798E-1,-5.9875946E-2,2.5200209E-2,7.060542E-2,1.1029964E-3,-1.4041507E-1,-4.773672E-2,3.6582094E-2,-1.1245749E-1],"categories":[],"categories_nodes":[],"categories_segments":[],"categories_sizes":[],"default_left":[0,0,0,0,0,0,0,0,0,0,0,0,0,0,0,0,0,0,0,0,0,0,0,0,0],"id":22,"left_children":[1,3,5,7,-1,9,11,13,15,17,19,21,23,-1,-1,-1,-1,-1,-1,-1,-1,-1,-1,-1,-1],"loss_changes":[4.370373E0,9.849888E0,7.172408E0,6.724791E0,0E0,9.699307E0,1.0260362E1,9.911278E0,1.1285879E1,9.85279E0,2.0756783E0,3.204401E0,8.729717E0,0E0,0E0,0E0,0E0,0E0,0E0,0E0,0E0,0E0,0E0,0E0,0E0],"parents":[2147483647,0,0,1,1,2,2,3,3,5,5,6,6,7,7,8,8,9,9,10,10,11,11,12,12],"right_children":[2,4,6,8,-1,10,12,14,16,18,20,22,24,-1,-1,-1,-1,-1,-1,-1,-1,-1,-1,-1,-1],"split_conditions":[9E0,1E0,4.109589E-3,1.169E3,-1.4032622E-1,2.4096386E-3,8E0,8.8E2,4E0,1.2E1,6E2,1E0,1.9E1,3.2429767E-3,5.673967E-2,1.2740214E-2,-1.4612798E-1,-5.9875946E-2,2.5200209E-2,7.060542E-2,1.1029964E-3,-1.4041507E-1,-4.773672E-2,3.6582094E-2,-1.1245749E-1],"split_indices":[1,23,11,3,0,11,10,3,0,1,5,14,4,0,0,0,0,0,0,0,0,0,0,0,0],"split_type":[0,0,0,0,0,0,0,0,0,0,0,0,0,0,0,0,0,0,0,0,0,0,0,0,0],"sum_hessian":[4.1769876E2,3.046683E2,1.1303045E2,3.0106567E2,3.6026325E0,7.6069565E1,3.6960888E1,2.838367E2,1.7228985E1,5.371045E1,2.2359114E1,1.813195E1,1.8828936E1,2.4446059E2,3.937611E1,1.0739042E1,6.4899435E0,3.0519009E1,2.319144E1,1.6635502E1,5.723611E0,1.03316965E1,7.8002534E0,1.4572137E1,4.256799E0],"tree_param":{"num_deleted":"0","num_feature":"31","num_nodes":"25","size_leaf_vector":"1"}},{"base_weights":[-3.06791E-3,5.14577E-2,-1.72821E-1,-8.814547E-2,2.665976E-1,-7.634353E-2,-1.0881871E-1,-2.901618E-2,-1.5144607E-1,-1.2422546E-1,3.7684625E-1,-1.982521E-1,1.1119193E0,-6.1428276E-5,-1.5139575E-1,-7.2695196E-2,3.2007188E-2,2.8404696E-2,7.9841994E-2,-5.088831E-2,1.7307466E-2,1.4878902E-1,-6.984999E-2],"categories":[],"categories_nodes":[],"categories_segments":[],"categories_sizes":[],"default_left":[0,0,0,0,0,0,0,0,0,0,0,0,0,0,0,0,0,0,0,0,0,0,0],"id":23,"left_children":[1,3,5,7,9,11,-1,13,-1,15,17,19,21,-1,-1,-1,-1,-1,-1,-1,-1,-1,-1],"loss_changes":[3.8616493E0,9.508996E0,8.874078E0,1.6173029E1,5.412757E0,1.3667836E1,0E0,7.829016E0,0E0,7.771777E0,3.5829754E0,9.897258E0,7.021661E0,0E0,0E0,0E0,0E0,0E0,0E0,0E0,0E0,0E0,0E0],"parents":[2147483647,0,0,1,1,2,2,3,3,4,4,5,5,7,7,9,9,10,10,11,11,12,12],"right_children":[2,4,6,8,10,12,-1,14,-1,16,18,20,22,-1,-1,-1,-1,-1,-1,-1,-1,-1,-1],"split_conditions":[1E0,1E0,1.5086398E0,2.5751073E-2,0E0,1.3985201E0,-1.0881871E-1,2.6774817E0,-1.5144607E-1,2.2701477E-3,1.9E1,6.25E-3,6E0,-6.1428276E-5,-1.5139575E-1,-7.2695196E-2,3.2007188E-2,2.8404696E-2,7.9841994E-2,-5.088831E-2,1.7307466E-2,1.4878902E-1,-6.984999E-2],"split_indices":[7,14,13,11,6,13,0,13,0,11,4,11,1,0,0,0,0,0,0,0,0,0,0],"split_type":[0,0,0,0,0,0,0,0,0,0,0,0,0,0,0,0,0,0,0,0,0,0,0],"sum_hessian":[4.1524908E2,3.1482306E2,1.00426E2,1.9128772E2,1.2353534E2,9.1830666E1,8.595338E0,1.8465309E2,6.634631E0,2.7153057E1,9.638228E1,8.4041664E1,7.7890077E0,1.8216922E2,2.4838667E0,1.1252253E1,1.59008045E1,8.0365524E1,1.6016758E1,4.5559067E1,3.8482594E1,6.5971293E0,1.1918783E0],"tree_param":{"num_deleted":"0","num_feature":"31","num_nodes":"23","size_leaf_vector":"1"}},{"base_weights":[-1.0912163E-2,-3.886658E-2,3.3899435E-1,-8.136661E-3,-3.1125513E-1,7.3180556E-1,-3.0795237E-1,5.1429474E-1,-4.7888808E-2,8.538606E-3,-9.6240765E-1,1.4223881E-1,4.434683E-1,-1.1081042E0,2.0420851E-1,-9.155328E-2,6.291609E-2,-3.215833E-2,2.6251862E-3,2.0748286E-2,-1.3783313E-1,-1.5736707E-1,5.208189E-2,6.541099E-2,-7.960275E-2,-1.624469E-1,7.936036E-3,1.0178798E-1,-9.685271E-2],"categories":[],"categories_nodes":[],"categories_segments":[],"categories_sizes":[],"default_left":[0,0,0,0,0,0,0,0,0,0,0,0,0,0,0,0,0,0,0,0,0,0,0,0,0,0,0,0,0],"id":24,"left_children":[1,3,5,7,9,11,13,15,17,19,21,-1,23,25,27,-1,-1,-1,-1,-1,-1,-1,-1,-1,-1,-1,-1,-1,-1],"loss_changes":[4.0929713E0,3.237981E0,8.093138E0,7.270822E0,8.175323E0,3.263959E0,5.307966E0,4.642089E0,6.606518E0,7.816679E0,1.2539428E1,0E0,4.5026903E0,3.1917253E0,9.006187E0,0E0,0E0,0E0,0E0,0E0,0E0,0E0,0E0,0E0,0E0,0E0,0E0,0E0,0E0],"parents":[2147483647,0,0,1,1,2,2,3,3,4,4,5,5,6,6,7,7,8,8,9,9,10,10,12,12,13,13,14,14],"right_children":[2,4,6,8,10,12,14,16,18,20,22,-1,24,26,28,-1,-1,-1,-1,-1,-1,-1,-1,-1,-1,-1,-1,-1,-1],"split_conditions":[1E0,3.54E2,6E0,2E2,8E0,9.19E2,2.9E2,1E0,3.69E2,4.9E1,3.6E2,1.4223881E-1,1E0,6E0,2.6666666E-3,-9.155328E-2,6.291609E-2,-3.215833E-2,2.6251862E-3,2.0748286E-2,-1.3783313E-1,-1.5736707E-1,5.208189E-2,6.541099E-2,-7.960275E-2,-1.624469E-1,7.936036E-3,1.0178798E-1,-9.685271E-2],"split_indices":[29,4,1,5,1,3,9,0,3,5,9,0,7,0,11,0,0,0,0,0,0,0,0,0,0,0,0,0,0],"split_type":[0,0,0,0,0,0,0,0,0,0,0,0,0,0,0,0,0,0,0,0,0,0,0,0,0,0,0,0,0],"sum_hessian":[4.1609592E2,3.8613602E2,2.9959908E1,3.479153E2,3.8220707E1,1.855971E1,1.1400198E1,2.3757078E1,3.2415823E2,2.6294065E1,1.1926643E1,4.3082232E0,1.4251487E1,3.995078E0,7.4051194E0,1.2482845E0,2.2508793E1,6.838258E1,2.5577565E2,2.373912E1,2.5549436E0,8.402749E0,3.5238943E0,1.2585045E1,1.6664419E0,2.5278406E0,1.4672375E0,4.449795E0,2.9553246E0],"tree_param":{"num_deleted":"0","num_feature":"31","num_nodes":"29","size_leaf_vector":"1"}},{"base_weights":[8.2353605E-3,-2.063471E-1,1.4844884E-1,-9.262052E-2,-6.816083E-1,9.138176E-2,4.189885E-1,-6.553062E-3,-7.101682E-1,-9.410616E-1,-2.6020393E-1,4.6784008E-1,2.0311536E-2,4.787668E-1,-7.2443046E-2,1.29378615E-2,-3.9998345E-2,1.4216231E-2,-1.14302635E-1,9.611916E-3,-1.11642495E-1,7.823412E-2,-6.6184044E-2,1.0473042E-2,7.554474E-2,-6.7150824E-2,6.318076E-3,-3.3625927E-2,5.5406224E-2],"categories":[],"categories_nodes":[],"categories_segments":[],"categories_sizes":[],"default_left":[0,0,0,0,0,0,0,0,0,0,0,0,0,0,0,0,0,0,0,0,0,0,0,0,0,0,0,0,0],"id":25,"left_children":[1,3,5,7,9,11,13,15,17,19,21,23,25,27,-1,-1,-1,-1,-1,-1,-1,-1,-1,-1,-1,-1,-1,-1,-1],"loss_changes":[1.2559059E1,8.853912E0,3.8588562E0,7.1324353E0,3.2208338E0,5.6018696E0,3.333232E0,6.4085565E0,6.2190104E0,3.606161E0,6.154359E0,3.3944588E0,5.3058105E0,2.771305E0,0E0,0E0,0E0,0E0,0E0,0E0,0E0,0E0,0E0,0E0,0E0,0E0,0E0,0E0,0E0],"parents":[2147483647,0,0,1,1,2,2,3,3,4,4,5,5,6,6,7,7,8,8,9,9,10,10,11,11,12,12,13,13],"right_children":[2,4,6,8,10,12,14,16,18,20,22,24,26,28,-1,-1,-1,-1,-1,-1,-1,-1,-1,-1,-1,-1,-1,-1,-1],"split_conditions":[2E0,6E0,1.1E1,2.9E2,5.75E2,5.1756257E-1,1E0,1E0,2E0,2E0,9.737727E-1,1E1,5.6632984E-1,2.8E2,-7.2443046E-2,1.29378615E-2,-3.9998345E-2,1.4216231E-2,-1.14302635E-1,9.611916E-3,-1.11642495E-1,7.823412E-2,-6.6184044E-2,1.0473042E-2,7.554474E-2,-6.7150824E-2,6.318076E-3,-3.3625927E-2,5.5406224E-2],"split_indices":[8,0,1,9,5,13,24,14,0,12,13,9,13,5,0,0,0,0,0,0,0,0,0,0,0,0,0,0,0],"split_type":[0,0,0,0,0,0,0,0,0,0,0,0,0,0,0,0,0,0,0,0,0,0,0,0,0,0,0,0,0],"sum_hessian":[4.154018E2,1.639782E2,2.514236E2,1.332801E2,3.0698082E1,2.087319E2,4.2691696E1,1.17864044E2,1.5416069E1,1.8236778E1,1.2461304E1,3.2261303E1,1.764706E2,4.1123055E1,1.5686414E0,8.809726E1,2.9766783E1,5.4184003E0,9.997669E0,2.702834E0,1.5533943E1,3.2019591E0,9.259345E0,1.4861949E1,1.7399353E1,9.441436E0,1.6702916E2,3.1847079E0,3.7938347E1],"tree_param":{"num_deleted":"0","num_feature":"31","num_nodes":"29","size_leaf_vector":"1"}},{"base_weights":[-1.8414326E-2,-3.1326222E-1,1.5941128E-1,-1.9192661E-1,-8.5441154E-1,9.252029E-2,4.1232648E-1,-2.914023E-1,4.4671842E-1,-9.820488E-1,2.8344977E-1,1.1429829E-1,-1.6138807E-1,5.1396805E-1,-9.427075E-1,3.141017E-2,-4.418642E-2,-2.4280334E-2,8.040224E-2,3.7468139E-3,-1.11461855E-1,1.2255774E-1,-6.850016E-2,1.8882444E-2,-1.6711969E-2,1.17162645E-1,3.6715157E-2,-6.7188794E-4,-1.3656758E-1],"categories":[],"categories_nodes":[],"categories_segments":[],"categories_sizes":[],"default_left":[0,0,0,0,0,0,0,0,0,0,0,0,0,0,0,0,0,0,0,0,0,0,0,0,0,0,0,0,0],"id":26,"left_children":[1,3,5,7,9,11,13,15,17,19,21,23,-1,25,27,-1,-1,-1,-1,-1,-1,-1,-1,-1,-1,-1,-1,-1,-1],"loss_changes":[2.1496502E1,9.962401E0,4.2896924E0,8.215366E0,4.3385983E0,7.750613E0,7.8140593E0,1.0225973E1,4.5180902E0,3.4694653E0,4.1202555E0,4.2674136E0,0E0,4.4122095E0,1.6005936E0,0E0,0E0,0E0,0E0,0E0,0E0,0E0,0E0,0E0,0E0,0E0,0E0,0E0,0E0],"parents":[2147483647,0,0,1,1,2,2,3,3,4,4,5,5,6,6,7,7,8,8,9,9,10,10,11,11,13,13,14,14],"right_children":[2,4,6,8,10,12,14,16,18,20,22,24,-1,26,28,-1,-1,-1,-1,-1,-1,-1,-1,-1,-1,-1,-1,-1,-1],"split_conditions":[2E0,6E0,1.5576324E-2,2.2413794E-2,9.49E2,1.3888889E-2,3.54E2,2E2,3.89E2,2E0,9.59E2,4.109589E-3,-1.6138807E-1,1.5873017E-2,7E0,3.141017E-2,-4.418642E-2,-2.4280334E-2,8.040224E-2,3.7468139E-3,-1.11461855E-1,1.2255774E-1,-6.850016E-2,1.8882444E-2,-1.6711969E-2,1.17162645E-1,3.6715157E-2,-6.7188794E-4,-1.3656758E-1],"split_indices":[8,0,11,11,5,11,4,5,5,12,3,11,0,11,1,0,0,0,0,0,0,0,0,0,0,0,0,0,0],"split_type":[0,0,0,0,0,0,0,0,0,0,0,0,0,0,0,0,0,0,0,0,0,0,0,0,0,0,0,0,0],"sum_hessian":[4.0803964E2,1.53223E2,2.5481662E2,1.26266426E2,2.6956587E1,2.0259906E2,5.2217564E1,1.09720085E2,1.6546339E1,2.4360888E1,2.5956986E0,2.0096722E2,1.6318333E0,4.9151398E1,3.0661666E0,2.1621414E1,8.809867E1,5.7569976E0,1.0789342E1,2.8857355E0,2.1475153E1,1.1811509E0,1.4145478E0,1.5914966E2,4.181757E1,7.6962347E0,4.1455162E1,1.2705173E0,1.7956493E0],"tree_param":{"num_deleted":"0","num_feature":"31","num_nodes":"29","size_leaf_vector":"1"}},{"base_weights":[9.154476E-3,-9.731947E-2,3.1008938E-1,-1.1599302E-2,-3.426008E-1,5.633678E-1,1.1435947E-1,6.9955355E-3,-1.1599044E-1,-4.957804E-1,2.6628888E-1,2.2223504E-1,7.5753504E-1,-7.8703487E-1,2.3865531E-1,1.7321086E-2,-1.4261051E-2,-6.512998E-2,5.1651835E-2,-3.2766636E-2,7.466155E-2,-3.249917E-2,8.309414E-2,8.038096E-2,-2.4087407E-2,8.005906E-2,-1.3271919E-1,7.491123E-2,4.0309667E-3],"categories":[],"categories_nodes":[],"categories_segments":[],"categories_sizes":[],"default_left":[0,0,0,0,0,0,0,0,0,0,0,0,0,0,0,0,0,0,0,0,0,0,0,0,0,0,0,0,0],"id":27,"left_children":[1,3,5,7,9,11,13,15,-1,17,19,21,23,25,27,-1,-1,-1,-1,-1,-1,-1,-1,-1,-1,-1,-1,-1,-1],"loss_changes":[1.3186563E1,6.388939E0,5.2671375E0,4.8412166E0,7.4729424E0,2.920064E0,7.1253605E0,5.588276E0,0E0,1.0291718E1,4.943686E0,6.3750925E0,1.5472546E0,7.696975E0,5.557015E0,0E0,0E0,0E0,0E0,0E0,0E0,0E0,0E0,0E0,0E0,0E0,0E0,0E0,0E0],"parents":[2147483647,0,0,1,1,2,2,3,3,4,4,5,5,6,6,7,7,9,9,10,10,11,11,12,12,13,13,14,14],"right_children":[2,4,6,8,10,12,14,16,-1,18,20,22,24,26,28,-1,-1,-1,-1,-1,-1,-1,-1,-1,-1,-1,-1,-1,-1],"split_conditions":[3E0,9E0,4.34E2,1E0,7E0,4E0,4E0,1.1E2,-1.1599044E-1,2.5E-2,5E0,1E1,8.44E2,1E0,2E0,1.7321086E-2,-1.4261051E-2,-6.512998E-2,5.1651835E-2,-3.2766636E-2,7.466155E-2,-3.249917E-2,8.309414E-2,8.038096E-2,-2.4087407E-2,8.005906E-2,-1.3271919E-1,7.491123E-2,4.0309667E-3],"split_indices":[8,1,5,23,12,0,1,9,0,11,0,1,3,0,0,0,0,0,0,0,0,0,0,0,0,0,0,0,0],"split_type":[0,0,0,0,0,0,0,0,0,0,0,0,0,0,0,0,0,0,0,0,0,0,0,0,0,0,0,0,0],"sum_hessian":[4.0960162E2,3.0305438E2,1.06547226E2,2.2534781E2,7.770657E1,4.5626865E1,6.0920364E1,2.2273491E2,2.612903E0,6.22356E1,1.5470973E1,1.7327938E1,2.8298927E1,6.7363505E0,5.4184013E1,1.0543582E2,1.1729909E2,5.4256756E1,7.978846E0,7.059396E0,8.411577E0,9.370214E0,7.9577236E0,2.7231695E1,1.0672314E0,1.5876873E0,5.1486635E0,1.4385381E1,3.979863E1],"tree_param":{"num_deleted":"0","num_feature":"31","num_nodes":"29","size_leaf_vector":"1"}},{"base_weights":[7.5611807E-3,-8.984942E-2,3.0619678E-1,-1.4328426E-1,1.8129705E-1,9.2464215E-1,2.196633E-1,-9.635018E-2,-1.4997369E-1,2.641972E-1,-1.05416454E-1,4.1392446E-1,1.0467768E-1,2.6461527E-1,-7.5338197E-1,-1.2906133E-2,1.0655216E-1,-7.3466145E-2,3.3671457E-2,-3.298275E-2,7.961057E-2,-8.39553E-2,3.0117158E-2,-1.5034892E-1,-3.561373E-4],"categories":[],"categories_nodes":[],"categories_segments":[],"categories_sizes":[],"default_left":[0,0,0,0,0,0,0,0,0,0,0,0,0,0,0,0,0,0,0,0,0,0,0,0,0],"id":28,"left_children":[1,3,5,7,9,11,13,15,-1,17,-1,19,-1,21,23,-1,-1,-1,-1,-1,-1,-1,-1,-1,-1],"loss_changes":[1.1658148E1,4.4051514E0,5.0716457E0,1.5965551E1,5.4199553E0,3.0192566E-1,4.038745E0,9.4739E0,0E0,3.7128332E0,0E0,1.3793285E0,0E0,3.6693268E0,2.3208792E0,0E0,0E0,0E0,0E0,0E0,0E0,0E0,0E0,0E0,0E0],"parents":[2147483647,0,0,1,1,2,2,3,3,4,4,5,5,6,6,7,7,9,9,11,11,13,13,14,14],"right_children":[2,4,6,8,10,12,14,16,-1,18,-1,20,-1,22,24,-1,-1,-1,-1,-1,-1,-1,-1,-1,-1],"split_conditions":[3E0,1.9639935E-2,5.018312E-1,1.5873017E-2,3.54E2,4.4047877E-1,2.5751073E-2,1.5576324E-2,-1.4997369E-1,5.4902536E-1,-1.05416454E-1,1E0,1.0467768E-1,5.034043E-1,3.4120735E-2,-1.2906133E-2,1.0655216E-1,-7.3466145E-2,3.3671457E-2,-3.298275E-2,7.961057E-2,-8.39553E-2,3.0117158E-2,-1.5034892E-1,-3.561373E-4],"split_indices":[8,11,13,11,4,13,11,11,0,13,0,10,0,13,11,0,0,0,0,0,0,0,0,0,0],"split_type":[0,0,0,0,0,0,0,0,0,0,0,0,0,0,0,0,0,0,0,0,0,0,0,0,0],"sum_hessian":[3.9881186E2,3.012482E2,9.756366E1,2.5204855E2,4.9199657E1,1.0786725E1,8.677694E1,2.4465439E2,7.3941607E0,4.6842648E1,2.3570125E0,2.9287899E0,7.8579354E0,8.3641014E1,3.1359248E0,2.3881961E2,5.8347707E0,2.5525684E0,4.4290077E1,1.0406322E0,1.8881577E0,1.9764724E0,8.166454E1,1.0651929E0,2.0707319E0],"tree_param":{"num_deleted":"0","num_feature":"31","num_nodes":"25","size_leaf_vector":"1"}},{"base_weights":[2.8497802E-2,-1.9862294E-1,1.6666098E-1,-4.6639007E-1,-3.1237945E-2,1.0491457E-1,4.6618634E-1,-6.335036E-1,5.312729E-1,1.673213E-1,-6.3128406E-1,8.041173E-3,4.6762413E-1,5.283919E-1,-7.143619E-2,-1.0207023E-1,-4.002687E-2,1.2240391E-1,-9.458547E-2,4.3898467E-2,-2.931483E-2,4.3868206E-2,-8.877573E-2,3.1898316E-2,-1.3259773E-2,6.1416026E-2,-1.310806E-2,9.5476285E-2,2.6971811E-2],"categories":[],"categories_nodes":[],"categories_segments":[],"categories_sizes":[],"default_left":[0,0,0,0,0,0,0,0,0,0,0,0,0,0,0,0,0,0,0,0,0,0,0,0,0,0,0,0,0],"id":29,"left_children":[1,3,5,7,9,11,13,15,17,19,21,23,25,27,-1,-1,-1,-1,-1,-1,-1,-1,-1,-1,-1,-1,-1,-1,-1],"loss_changes":[1.272179E1,6.860811E0,4.6109996E0,1.0162304E1,1.14797325E1,7.3815656E0,3.5185814E0,4.191309E0,1.0366859E1,9.200352E0,6.96041E0,7.3409343E0,3.9658766E0,4.28724E0,0E0,0E0,0E0,0E0,0E0,0E0,0E0,0E0,0E0,0E0,0E0,0E0,0E0,0E0,0E0],"parents":[2147483647,0,0,1,1,2,2,3,3,4,4,5,5,6,6,7,7,8,8,9,9,10,10,11,11,12,12,13,13],"right_children":[2,4,6,8,10,12,14,16,18,20,22,24,26,28,-1,-1,-1,-1,-1,-1,-1,-1,-1,-1,-1,-1,-1,-1,-1],"split_conditions":[2E0,1E0,1.1E1,1.029E3,1.85E2,1.5576324E-2,1E0,7.5E1,4E0,1E0,1.1111111E-3,3.15E2,1.9E1,3.5E1,-7.143619E-2,-1.0207023E-1,-4.002687E-2,1.2240391E-1,-9.458547E-2,4.3898467E-2,-2.931483E-2,4.3868206E-2,-8.877573E-2,3.1898316E-2,-1.3259773E-2,6.1416026E-2,-1.310806E-2,9.5476285E-2,2.6971811E-2],"split_indices":[8,7,1,5,9,11,24,9,1,14,11,5,4,9,0,0,0,0,0,0,0,0,0,0,0,0,0,0,0],"split_type":[0,0,0,0,0,0,0,0,0,0,0,0,0,0,0,0,0,0,0,0,0,0,0,0,0,0,0,0,0],"sum_hessian":[4.0335944E2,1.5239915E2,2.5096028E2,5.7934517E1,9.4464645E1,2.0918715E2,4.1773144E1,4.9935143E1,7.999375E0,7.1519516E1,2.294513E1,1.6590025E2,4.3286892E1,4.0206974E1,1.5661719E0,1.7502525E1,3.2432617E1,5.562109E0,2.437266E0,4.5011013E1,2.65085E1,4.2991815E0,1.8645948E1,5.127251E1,1.1462774E2,3.4754684E1,8.532205E0,1.4166086E1,2.6040886E1],"tree_param":{"num_deleted":"0","num_feature":"31","num_nodes":"29","size_leaf_vector":"1"}},{"base_weights":[8.67112E-3,-1.1456539E-1,8.487321E-2,-1.5041652E-2,-5.0015736E-1,1.949082E-2,3.211492E-1,2.8821903E-1,-1.2308328E-1,1.981191E-2,-8.949404E-1,5.8634065E-2,-9.658032E-1,2.0561095E-1,1.0617232E-1,-3.8659424E-3,8.8920355E-2,3.8311554E-3,-9.571514E-2,-9.6054964E-2,3.9780308E-2,-1.0693377E-1,8.713341E-3,7.772125E-4,3.233033E-2,9.04351E-3,-1.6307329E-1,-1.4109673E-1,3.2078713E-2],"categories":[],"categories_nodes":[],"categories_segments":[],"categories_sizes":[],"default_left":[0,0,0,0,0,0,0,0,0,0,0,0,0,0,0,0,0,0,0,0,0,0,0,0,0,0,0,0,0],"id":30,"left_children":[1,3,5,7,9,11,13,15,17,19,21,23,25,27,-1,-1,-1,-1,-1,-1,-1,-1,-1,-1,-1,-1,-1,-1,-1],"loss_changes":[3.746887E0,5.8439064E0,3.801415E0,4.040231E0,6.432693E0,7.543402E0,4.347252E0,6.4005356E0,1.2262514E1,5.7424755E0,3.139285E0,2.523504E0,5.3969936E0,9.277548E0,0E0,0E0,0E0,0E0,0E0,0E0,0E0,0E0,0E0,0E0,0E0,0E0,0E0,0E0,0E0],"parents":[2147483647,0,0,1,1,2,2,3,3,4,4,5,5,6,6,7,7,8,8,9,9,10,10,11,11,12,12,13,13],"right_children":[2,4,6,8,10,12,14,16,18,20,22,24,26,28,-1,-1,-1,-1,-1,-1,-1,-1,-1,-1,-1,-1,-1,-1,-1],"split_conditions":[2E0,9E0,8.19E2,2.8E2,2E1,7.8E2,1.2E1,7E0,1.9E1,1E0,1.3E1,1.1E1,5E0,3E1,1.0617232E-1,-3.8659424E-3,8.8920355E-2,3.8311554E-3,-9.571514E-2,-9.6054964E-2,3.9780308E-2,-1.0693377E-1,8.713341E-3,7.772125E-4,3.233033E-2,9.04351E-3,-1.6307329E-1,-1.4109673E-1,3.2078713E-2],"split_indices":[8,1,3,5,9,3,1,1,4,7,10,1,1,9,0,0,0,0,0,0,0,0,0,0,0,0,0,0,0],"split_type":[0,0,0,0,0,0,0,0,0,0,0,0,0,0,0,0,0,0,0,0,0,0,0,0,0,0,0,0,0],"sum_hessian":[3.9695676E2,1.5147806E2,2.4547871E2,1.2122748E2,3.0250574E1,1.9312076E2,5.2357956E1,3.1406187E1,8.982129E1,1.3465268E1,1.6785307E1,1.8664626E2,6.474494E0,4.6397102E1,5.9608564E0,2.094809E1,1.04580965E1,7.6057915E1,1.3763381E1,3.3181324E0,1.0147136E1,1.4178603E1,2.6067035E0,1.5742331E2,2.9222946E1,2.8350387E0,3.6394553E0,2.3375428E0,4.405956E1],"tree_param":{"num_deleted":"0","num_feature":"31","num_nodes":"29","size_leaf_vector":"1"}},{"base_weights":[-1.2741818E-2,8.079643E-2,-1.1492523E-1,1.0223867E-2,3.4417418E-1,-2.5043238E-2,-6.336094E-1,2.666444E-2,-1.098998E-1,1.0996461E0,1.459694E-1,-4.229543E-1,8.558718E-2,1.0891555E-1,-9.0647304E-1,-2.8184582E-3,4.935838E-2,5.7107516E-2,1.6591737E-1,-3.8417157E-2,6.12445E-2,4.7604996E-3,-7.1138814E-2,4.383465E-3,1.0413932E-1,-6.12392E-2,1.2410622E-1,-1.092665E-1,-2.0826994E-2],"categories":[],"categories_nodes":[],"categories_segments":[],"categories_sizes":[],"default_left":[0,0,0,0,0,0,0,0,0,0,0,0,0,0,0,0,0,0,0,0,0,0,0,0,0,0,0,0,0],"id":31,"left_children":[1,3,5,7,9,11,13,15,-1,17,19,21,23,25,27,-1,-1,-1,-1,-1,-1,-1,-1,-1,-1,-1,-1,-1,-1],"loss_changes":[3.8154826E0,3.8717601E0,8.875912E0,3.0467134E0,6.4323263E0,7.2380066E0,5.797742E0,4.2145243E0,0E0,1.7135334E0,9.145801E0,4.8871813E0,5.09604E0,7.661808E0,2.460394E0,0E0,0E0,0E0,0E0,0E0,0E0,0E0,0E0,0E0,0E0,0E0,0E0,0E0,0E0],"parents":[2147483647,0,0,1,1,2,2,3,3,4,4,5,5,6,6,7,7,9,9,10,10,11,11,12,12,13,13,14,14],"right_children":[2,4,6,8,10,12,14,16,-1,18,20,22,24,26,28,-1,-1,-1,-1,-1,-1,-1,-1,-1,-1,-1,-1,-1,-1],"split_conditions":[1.35E2,9.5E1,1E0,1.702E3,-1E1,5.55E2,1.85E2,8.19E2,-1.098998E-1,1.3E2,1E0,4.49E2,1E0,1.8E2,6E0,-2.8184582E-3,4.935838E-2,5.7107516E-2,1.6591737E-1,-3.8417157E-2,6.12445E-2,4.7604996E-3,-7.1138814E-2,4.383465E-3,1.0413932E-1,-6.12392E-2,1.2410622E-1,-1.092665E-1,-2.0826994E-2],"split_indices":[9,9,7,3,6,3,9,3,0,9,14,5,27,9,0,0,0,0,0,0,0,0,0,0,0,0,0,0,0],"split_type":[0,0,0,0,0,0,0,0,0,0,0,0,0,0,0,0,0,0,0,0,0,0,0,0,0,0,0,0,0],"sum_hessian":[3.9721872E2,2.0749135E2,1.8972737E2,1.6446222E2,4.3029137E1,1.625991E2,2.7128267E1,1.6302191E2,1.4403036E0,7.997616E0,3.503152E1,3.4758392E1,1.2784071E2,7.451596E0,1.9676672E1,1.4672568E2,1.6296232E1,5.151637E0,2.8459783E0,1.6479412E1,1.855211E1,1.3526243E1,2.123215E1,1.23492065E2,4.348651E0,4.832088E0,2.619508E0,1.5088112E1,4.58856E0],"tree_param":{"num_deleted":"0","num_feature":"31","num_nodes":"29","size_leaf_vector":"1"}},{"base_weights":[4.759144E-2,-3.5095558E-2,2.896054E-1,1.7023465E-1,-1.3783458E-1,7.7819866E-1,2.1344784E-1,2.927333E-1,-5.2693206E-1,7.89756E-3,-4.676943E-1,-7.387038E-2,1.020396E0,8.8495266E-1,1.48754E-1,3.6428753E-2,-9.1482125E-2,-9.069236E-2,3.6585566E-2,-3.7032384E-2,1.1881714E-2,-5.7232838E-2,1.1455589E-1,-7.4577145E-2,7.044852E-2,3.4610163E-2,1.10849E-1,1.3352542E-2,9.941762E-2,3.175192E-3,5.6628752E-2],"categories":[],"categories_nodes":[],"categories_segments":[],"categories_sizes":[],"default_left":[0,0,0,0,0,0,0,0,0,0,0,0,0,0,0,0,0,0,0,0,0,0,0,0,0,0,0,0,0,0,0],"id":32,"left_children":[1,3,5,7,9,11,13,15,17,19,21,23,25,27,29,-1,-1,-1,-1,-1,-1,-1,-1,-1,-1,-1,-1,-1,-1,-1,-1],"loss_changes":[7.8892426E0,6.2330246E0,3.5688019E0,8.576005E0,9.461344E0,2.7906938E0,3.7006588E0,7.6361113E0,5.4527493E0,5.8098907E0,1.0834863E1,2.53608E0,2.289486E-1,4.8690462E-1,3.9715915E0,0E0,0E0,0E0,0E0,0E0,0E0,0E0,0E0,0E0,0E0,0E0,0E0,0E0,0E0,0E0,0E0],"parents":[2147483647,0,0,1,1,2,2,3,3,4,4,5,5,6,6,7,7,8,8,9,9,10,10,11,11,12,12,13,13,14,14],"right_children":[2,4,6,8,10,12,14,16,18,20,22,24,26,28,30,-1,-1,-1,-1,-1,-1,-1,-1,-1,-1,-1,-1,-1,-1,-1,-1],"split_conditions":[3E0,5E0,1E0,6E0,6.79E2,0E0,3E2,6.44E2,1E0,2E0,2.1E1,2.4096386E-3,3.2E2,3E0,1.1E1,3.6428753E-2,-9.1482125E-2,-9.069236E-2,3.6585566E-2,-3.7032384E-2,1.1881714E-2,-5.7232838E-2,1.1455589E-1,-7.4577145E-2,7.044852E-2,3.4610163E-2,1.10849E-1,1.3352542E-2,9.941762E-2,3.175192E-3,5.6628752E-2],"split_indices":[8,1,0,10,3,6,3,4,14,0,10,11,3,0,1,0,0,0,0,0,0,0,0,0,0,0,0,0,0,0,0],"split_type":[0,0,0,0,0,0,0,0,0,0,0,0,0,0,0,0,0,0,0,0,0,0,0,0,0,0,0,0,0,0,0],"sum_hessian":[3.9272934E2,2.9335577E2,9.937357E1,9.76131E1,1.9574269E2,1.2157588E1,8.721598E1,8.351827E1,1.4094824E1,1.3643967E2,5.930303E1,2.8447032E0,9.312885E0,6.5499687E0,8.0666016E1,7.950546E1,4.0128074E0,9.875671E0,4.2191525E0,3.040928E1,1.0603038E2,5.6296898E1,3.00613E0,1.5492257E0,1.2954776E0,1.6456237E0,7.667261E0,1.1132966E0,5.436672E0,6.384991E1,1.6816101E1],"tree_param":{"num_deleted":"0","num_feature":"31","num_nodes":"31","size_leaf_vector":"1"}},{"base_weights":[1.3577381E-2,-1.3603856E-1,1.0253004E-1,-3.495317E-2,-5.676169E-1,6.688301E-2,5.411449E-1,3.6321357E-1,-1.852612E-1,-7.94723E-1,4.5140907E-1,8.332941E-2,-1.3052101E-1,6.981973E-1,-5.050807E-2,1.7378831E-2,1.4926638E-1,-9.1492854E-2,-2.8780843E-3,-9.102927E-2,3.3230275E-2,-7.639516E-2,1.22334234E-1,9.950245E-3,-1.2652862E-1,9.0765566E-2,1.43846935E-2],"categories":[],"categories_nodes":[],"categories_segments":[],"categories_sizes":[],"default_left":[0,0,0,0,0,0,0,0,0,0,0,0,0,0,0,0,0,0,0,0,0,0,0,0,0,0,0],"id":33,"left_children":[1,3,5,7,9,11,13,15,17,19,21,23,-1,25,-1,-1,-1,-1,-1,-1,-1,-1,-1,-1,-1,-1,-1],"loss_changes":[5.2540426E0,6.4035673E0,3.8334892E0,7.2706203E0,6.8100233E0,5.2997217E0,3.3861084E0,6.869802E0,1.0025804E1,3.3188162E0,6.2991977E0,5.104308E0,0E0,1.7820215E0,0E0,0E0,0E0,0E0,0E0,0E0,0E0,0E0,0E0,0E0,0E0,0E0,0E0],"parents":[2147483647,0,0,1,1,2,2,3,3,4,4,5,5,6,6,7,7,8,8,9,9,10,10,11,11,13,13],"right_children":[2,4,6,8,10,12,14,16,18,20,22,24,-1,26,-1,-1,-1,-1,-1,-1,-1,-1,-1,-1,-1,-1,-1],"split_conditions":[2E0,9E0,1.249E3,2.8E2,1E0,1.149E3,5.147059E-3,2.65E2,3.69E2,3.0232558E-2,1E0,5.35E2,-1.3052101E-1,1E0,-5.050807E-2,1.7378831E-2,1.4926638E-1,-9.1492854E-2,-2.8780843E-3,-9.102927E-2,3.3230275E-2,-7.639516E-2,1.22334234E-1,9.950245E-3,-1.2652862E-1,9.0765566E-2,1.43846935E-2],"split_indices":[8,1,3,5,23,5,11,5,5,11,2,9,0,2,0,0,0,0,0,0,0,0,0,0,0,0,0],"split_type":[0,0,0,0,0,0,0,0,0,0,0,0,0,0,0,0,0,0,0,0,0,0,0,0,0,0,0],"sum_hessian":[3.9273346E2,1.4623718E2,2.4649628E2,1.1936111E2,2.6876078E1,2.290347E2,1.7461576E1,3.2322414E1,8.703869E1,2.2157942E1,4.718134E0,2.2725008E2,1.7846316E0,1.5471718E1,1.989859E0,2.8668207E1,3.654206E0,1.4513831E1,7.2524864E1,2.0271524E1,1.8864182E0,1.8367018E0,2.8814323E0,2.2547235E2,1.7777187E0,1.076637E1,4.705348E0],"tree_param":{"num_deleted":"0","num_feature":"31","num_nodes":"27","size_leaf_vector":"1"}},{"base_weights":[4.0350076E-2,-8.389279E-2,1.1621032E-1,1.2547854E-2,-5.2998173E-1,5.9631184E-2,3.993915E-1,6.1970636E-2,-6.5148884E-1,-7.5772196E-1,4.2324334E-1,7.841391E-2,-1.340053E-1,4.4853958E-1,-6.520041E-2,9.131979E-2,-2.2679803E-4,5.777777E-2,-1.0643798E-1,-3.3374906E-2,-1.0354912E-1,-7.511733E-2,1.1679536E-1,-4.3819025E-3,2.0897422E-2,-2.482583E-2,5.356258E-2],"categories":[],"categories_nodes":[],"categories_segments":[],"categories_sizes":[],"default_left":[0,0,0,0,0,0,0,0,0,0,0,0,0,0,0,0,0,0,0,0,0,0,0,0,0,0,0],"id":34,"left_children":[1,3,5,7,9,11,13,15,17,19,21,23,-1,25,-1,-1,-1,-1,-1,-1,-1,-1,-1,-1,-1,-1,-1],"loss_changes":[3.6716497E0,6.36833E0,3.8479881E0,4.0627513E0,6.032121E0,5.4310694E0,2.362833E0,6.289754E0,4.968322E0,2.1974716E0,5.875812E0,3.2144628E0,0E0,2.4916253E0,0E0,0E0,0E0,0E0,0E0,0E0,0E0,0E0,0E0,0E0,0E0,0E0,0E0],"parents":[2147483647,0,0,1,1,2,2,3,3,4,4,5,5,6,6,7,7,8,8,9,9,10,10,11,11,13,13],"right_children":[2,4,6,8,10,12,14,16,18,20,22,24,-1,26,-1,-1,-1,-1,-1,-1,-1,-1,-1,-1,-1,-1,-1],"split_conditions":[2E0,9E0,1.1E1,6E0,1E0,1E0,1E0,2E0,2E0,0E0,5E0,1E0,-1.340053E-1,3.6E2,-6.520041E-2,9.131979E-2,-2.2679803E-4,5.777777E-2,-1.0643798E-1,-3.3374906E-2,-1.0354912E-1,-7.511733E-2,1.1679536E-1,-4.3819025E-3,2.0897422E-2,-2.482583E-2,5.356258E-2],"split_indices":[8,1,1,12,23,23,18,1,0,6,0,14,0,3,0,0,0,0,0,0,0,0,0,0,0,0,0],"split_type":[0,0,0,0,0,0,0,0,0,0,0,0,0,0,0,0,0,0,0,0,0,0,0,0,0,0,0],"sum_hessian":[3.875267E2,1.4687346E2,2.4065323E2,1.21564186E2,2.5309275E1,2.0158704E2,3.906619E1,1.1398706E2,7.5771284E0,2.0594118E1,4.715157E0,1.998492E2,1.7378511E0,3.786935E1,1.1968381E0,7.071167E0,1.0691589E2,1.8047237E0,5.7724047E0,9.023159E0,1.157096E1,1.8263319E0,2.888825E0,1.0355938E2,9.628981E1,4.0015197E0,3.386783E1],"tree_param":{"num_deleted":"0","num_feature":"31","num_nodes":"27","size_leaf_vector":"1"}},{"base_weights":[4.801581E-2,-8.090814E-2,1.2543474E-1,2.6865505E-2,-6.524292E-1,6.94842E-2,3.351074E-1,-5.416345E-2,5.124952E-1,-1.0668023E-1,-2.5122702E-2,1.3509327E-1,-4.434596E-1,4.614491E-1,-2.0156679E-1,8.938426E-3,-8.996403E-2,2.4374051E-2,1.7146184E-1,5.7031024E-2,-8.922293E-2,9.2386715E-2,1.066384E-2,-1.6861212E-1,-2.871936E-2,7.1604386E-2,1.9816E-2,-1.9595246E-1,3.5775788E-2],"categories":[],"categories_nodes":[],"categories_segments":[],"categories_sizes":[],"default_left":[0,0,0,0,0,0,0,0,0,0,0,0,0,0,0,0,0,0,0,0,0,0,0,0,0,0,0,0,0],"id":35,"left_children":[1,3,5,7,9,11,13,15,17,-1,19,21,23,25,27,-1,-1,-1,-1,-1,-1,-1,-1,-1,-1,-1,-1,-1,-1],"loss_changes":[3.9854856E0,9.259374E0,2.900646E0,5.033001E0,6.1713276E0,6.723472E0,3.6350036E0,1.3420226E1,5.4892526E0,0E0,5.9348497E0,3.8587976E0,3.9213471E0,2.7128744E0,1.1173181E1,0E0,0E0,0E0,0E0,0E0,0E0,0E0,0E0,0E0,0E0,0E0,0E0,0E0,0E0],"parents":[2147483647,0,0,1,1,2,2,3,3,4,4,5,5,6,6,7,7,8,8,10,10,11,11,12,12,13,13,14,14],"right_children":[2,4,6,8,10,12,14,16,18,-1,20,22,24,26,28,-1,-1,-1,-1,-1,-1,-1,-1,-1,-1,-1,-1,-1,-1],"split_conditions":[2E0,6E0,8.19E2,2.2413794E-2,6.8965517E-3,7.09E2,4E0,9.1743115E-3,2.7E2,-1.0668023E-1,1E0,-4.9E1,3.5E1,8.89E2,9.09E2,8.938426E-3,-8.996403E-2,2.4374051E-2,1.7146184E-1,5.7031024E-2,-8.922293E-2,9.2386715E-2,1.066384E-2,-1.6861212E-1,-2.871936E-2,7.1604386E-2,1.9816E-2,-1.9595246E-1,3.5775788E-2],"split_indices":[8,0,3,11,11,5,8,11,9,0,26,6,9,5,5,0,0,0,0,0,0,0,0,0,0,0,0,0,0],"split_type":[0,0,0,0,0,0,0,0,0,0,0,0,0,0,0,0,0,0,0,0,0,0,0,0,0,0,0,0,0],"sum_hessian":[3.9728427E2,1.4904237E2,2.4824188E2,1.26197815E2,2.2844553E1,1.9700348E2,5.123842E1,1.0891367E2,1.7284147E1,1.3335234E1,9.509319E0,1.7531596E2,2.16875E1,4.1588085E1,9.650334E0,9.387035E1,1.5043322E1,1.5109029E1,2.1751173E0,5.840792E0,3.6685266E0,5.008613E0,1.7030736E2,1.3289924E0,2.035851E1,2.0268898E1,2.1319185E1,1.7250681E0,7.9252663E0],"tree_param":{"num_deleted":"0","num_feature":"31","num_nodes":"29","size_leaf_vector":"1"}},{"base_weights":[2.8564196E-2,-1.5447222E-1,7.7763535E-2,7.675133E-2,-5.4993474E-1,1.238389E0,4.592021E-2,-9.167854E-3,9.5832694E-1,6.2678985E-2,-6.416787E-1,1.7668853E0,2.8395003E-1,2.0854908E-1,-2.7874932E-2,-2.9544398E-2,3.8278613E-2,4.6931817E-3,1.2904768E-1,-4.6317182E-2,-1.5260516E-1,4.468257E-2,2.1678388E-1,4.6807746E-3,4.1491088E-2,7.4376836E-3,7.1083486E-2,2.3111543E-2,-1.2642041E-2],"categories":[],"categories_nodes":[],"categories_segments":[],"categories_sizes":[],"default_left":[0,0,0,0,0,0,0,0,0,0,0,0,0,0,0,0,0,0,0,0,0,0,0,0,0,0,0,0,0],"id":36,"left_children":[1,3,5,7,9,11,13,15,17,-1,19,21,23,25,27,-1,-1,-1,-1,-1,-1,-1,-1,-1,-1,-1,-1,-1,-1],"loss_changes":[3.4660769E0,7.5030413E0,1.1140274E1,3.9751658E0,3.6654243E0,3.5597887E0,3.557167E0,5.5782037E0,1.3500586E0,0E0,3.7978897E0,1.672904E0,1.0670009E-1,6.1797748E0,5.2468424E0,0E0,0E0,0E0,0E0,0E0,0E0,0E0,0E0,0E0,0E0,0E0,0E0,0E0,0E0],"parents":[2147483647,0,0,1,1,2,2,3,3,4,4,5,5,6,6,7,7,8,8,10,10,11,11,12,12,13,13,14,14],"right_children":[2,4,6,8,10,12,14,16,18,-1,20,22,24,26,28,-1,-1,-1,-1,-1,-1,-1,-1,-1,-1,-1,-1,-1,-1],"split_conditions":[3.69E2,3.19E2,3.79E2,1E0,-4.9E1,6E0,1.05E2,1E0,1E0,6.2678985E-2,3.54E2,7.5E1,8.5E1,9.5E1,1.8181818E-3,-2.9544398E-2,3.8278613E-2,4.6931817E-3,1.2904768E-1,-4.6317182E-2,-1.5260516E-1,4.468257E-2,2.1678388E-1,4.6807746E-3,4.1491088E-2,7.4376836E-3,7.1083486E-2,2.3111543E-2,-1.2642041E-2],"split_indices":[3,3,3,19,6,10,9,2,7,0,3,9,9,9,11,0,0,0,0,0,0,0,0,0,0,0,0,0,0],"split_type":[0,0,0,0,0,0,0,0,0,0,0,0,0,0,0,0,0,0,0,0,0,0,0,0,0,0,0,0,0],"sum_hessian":[3.8256036E2,8.059243E1,3.0196793E2,5.1365425E1,2.9227003E1,7.051854E0,2.9491608E2,4.7705593E1,3.6598315E0,1.6920843E0,2.753492E1,3.9908137E0,3.0610404E0,9.148233E1,2.0343373E2,2.7711697E1,1.9993898E1,1.2823775E0,2.377454E0,2.417835E1,3.3565679E0,1.4223657E0,2.568448E0,1.5719643E0,1.4890763E0,7.310291E1,1.8379416E1,5.5700447E1,1.4773329E2],"tree_param":{"num_deleted":"0","num_feature":"31","num_nodes":"29","size_leaf_vector":"1"}},{"base_weights":[-2.9794795E-2,-8.429714E-2,1.3122842E-1,6.8489976E-2,-2.2294514E-1,2.066474E-1,-8.6838615E-1,-1.5057772E-1,2.4274117E-1,-3.8316917E-2,-7.0057327E-1,3.2924438E-1,-2.0047754E-1,6.418905E-2,-2.145751E-1,1.3271915E-2,-6.5518804E-2,3.7018664E-2,-4.122336E-2,-4.1381028E-2,1.9956252E-2,-7.87114E-2,7.784045E-2,8.158958E-2,2.3818051E-2,6.767496E-2,-4.2849317E-2],"categories":[],"categories_nodes":[],"categories_segments":[],"categories_sizes":[],"default_left":[0,0,0,0,0,0,0,0,0,0,0,0,0,0,0,0,0,0,0,0,0,0,0,0,0,0,0],"id":37,"left_children":[1,3,5,7,9,11,13,15,17,19,21,23,25,-1,-1,-1,-1,-1,-1,-1,-1,-1,-1,-1,-1,-1,-1],"loss_changes":[3.3184342E0,5.9926033E0,7.3936443E0,5.1900353E0,1.3038758E1,4.5474434E0,1.469921E1,8.725369E0,6.4612303E0,9.721817E0,5.8921223E0,2.8805566E0,4.570714E0,0E0,0E0,0E0,0E0,0E0,0E0,0E0,0E0,0E0,0E0,0E0,0E0,0E0,0E0],"parents":[2147483647,0,0,1,1,2,2,3,3,4,4,5,5,6,6,7,7,8,8,9,9,10,10,11,11,12,12],"right_children":[2,4,6,8,10,12,14,16,18,20,22,24,26,-1,-1,-1,-1,-1,-1,-1,-1,-1,-1,-1,-1,-1,-1],"split_conditions":[3E0,6E0,6E0,3E0,7E2,1E0,2E0,4E2,1.095E3,3.89E2,1.949E3,1E0,5.55E2,6.418905E-2,-2.145751E-1,1.3271915E-2,-6.5518804E-2,3.7018664E-2,-4.122336E-2,-4.1381028E-2,1.9956252E-2,-7.87114E-2,7.784045E-2,8.158958E-2,2.3818051E-2,6.767496E-2,-4.2849317E-2],"split_indices":[8,1,12,12,3,19,0,3,3,3,3,0,3,0,0,0,0,0,0,0,0,0,0,0,0,0,0],"split_type":[0,0,0,0,0,0,0,0,0,0,0,0,0,0,0,0,0,0,0,0,0,0,0,0,0,0,0],"sum_hessian":[3.758594E2,2.8116766E2,9.469176E1,1.3400406E2,1.4716359E2,8.878628E1,5.90548E0,5.942771E1,7.4576355E1,1.0691541E2,4.0248173E1,6.838492E1,2.040136E1,2.9339955E0,2.9714847E0,3.8532112E1,2.08956E1,6.279288E1,1.1783474E1,4.1177322E1,6.573809E1,3.846522E1,1.7829503E0,9.524696E0,5.886022E1,3.8028708E0,1.659849E1],"tree_param":{"num_deleted":"0","num_feature":"31","num_nodes":"27","size_leaf_vector":"1"}},{"base_weights":[-2.2634463E-2,-1.9536017E-1,8.103577E-2,3.1916448E-1,-2.7329183E-1,4.616346E-2,5.4034805E-1,-9.4491415E-2,5.451933E-1,-7.638812E-1,-1.6769421E-1,7.203691E-2,-5.312118E-1,2.472382E-1,8.9371693E-1,9.448373E-2,-1.2708572E-2,-9.460282E-2,1.2093208E-1,-1.8919926E-3,-5.0263442E-2,1.7041614E-3,3.438392E-2,-1.7381413E-2,-1.4926448E-1,-1.5210772E-2,7.301207E-2,1.0924007E-1,4.1661568E-2],"categories":[],"categories_nodes":[],"categories_segments":[],"categories_sizes":[],"default_left":[0,0,0,0,0,0,0,0,0,0,0,0,0,0,0,0,0,0,0,0,0,0,0,0,0,0,0,0,0],"id":38,"left_children":[1,3,5,7,9,11,13,-1,15,17,19,21,23,25,27,-1,-1,-1,-1,-1,-1,-1,-1,-1,-1,-1,-1,-1,-1],"loss_changes":[6.685173E0,5.7006116E0,3.7144637E0,5.9083467E0,6.198162E0,3.2960968E0,1.475699E0,0E0,4.59261E0,8.816877E0,5.06166E0,3.127315E0,2.9955807E0,2.1042788E0,2.1265697E-1,0E0,0E0,0E0,0E0,0E0,0E0,0E0,0E0,0E0,0E0,0E0,0E0,0E0,0E0],"parents":[2147483647,0,0,1,1,2,2,3,3,4,4,5,5,6,6,8,8,9,9,10,10,11,11,12,12,13,13,14,14],"right_children":[2,4,6,8,10,12,14,-1,16,18,20,22,24,26,28,-1,-1,-1,-1,-1,-1,-1,-1,-1,-1,-1,-1,-1,-1],"split_conditions":[2E0,2.8E2,5.99E2,2E0,3.69E2,3.54E2,1E0,-9.4491415E-2,1E0,3.29E2,1.9E1,1.1E1,9E0,6E0,7.2E2,9.448373E-2,-1.2708572E-2,-9.460282E-2,1.2093208E-1,-1.8919926E-3,-5.0263442E-2,1.7041614E-3,3.438392E-2,-1.7381413E-2,-1.4926448E-1,-1.5210772E-2,7.301207E-2,1.0924007E-1,4.1661568E-2],"split_indices":[8,3,4,0,3,4,14,0,14,4,4,1,1,0,4,0,0,0,0,0,0,0,0,0,0,0,0,0,0],"split_type":[0,0,0,0,0,0,0,0,0,0,0,0,0,0,0,0,0,0,0,0,0,0,0,0,0,0,0,0,0],"sum_hessian":[3.7145337E2,1.3899252E2,2.3246085E2,1.787589E1,1.2111663E2,2.1708002E2,1.5380837E1,2.2290883E0,1.5646803E1,2.0348219E1,1.0076841E2,2.086071E2,8.472908E0,9.336296E0,6.0445414E0,9.55895E0,6.0878534E0,1.9105175E1,1.2430438E0,7.050699E1,3.0261423E1,1.743854E2,3.422169E1,7.0375834E0,1.4353249E0,5.485097E0,3.851199E0,3.356924E0,2.687617E0],"tree_param":{"num_deleted":"0","num_feature":"31","num_nodes":"29","size_leaf_vector":"1"}},{"base_weights":[-3.7509136E-2,3.228293E-2,-2.4595179E-1,4.7542173E-2,-1.12554446E-1,9.969312E-2,-4.8689392E-1,8.45087E-2,-3.7371E-1,-3.3399057E-1,4.196692E-1,-1.7597209E-1,-3.607901E-1,3.0794786E-3,5.868408E-2,-8.5350595E-2,4.1705593E-3,4.0603586E-2,-5.6143787E-2,8.148505E-2,-2.67384E-2,-1.654349E-2,-8.8462956E-2],"categories":[],"categories_nodes":[],"categories_segments":[],"categories_sizes":[],"default_left":[0,0,0,0,0,0,0,0,0,0,0,0,0,0,0,0,0,0,0,0,0,0,0],"id":39,"left_children":[1,3,5,7,-1,9,11,13,15,17,19,-1,21,-1,-1,-1,-1,-1,-1,-1,-1,-1,-1],"loss_changes":[5.3599277E0,4.9385185E0,7.7434897E0,4.29617E0,0E0,5.5219917E0,8.131319E0,6.7971196E0,4.4758916E0,3.0931537E0,6.397516E0,0E0,5.0676064E0,0E0,0E0,0E0,0E0,0E0,0E0,0E0,0E0,0E0,0E0],"parents":[2147483647,0,0,1,1,2,2,3,3,5,5,6,6,7,7,8,8,9,9,10,10,12,12],"right_children":[2,4,6,8,-1,10,12,14,16,18,20,-1,22,-1,-1,-1,-1,-1,-1,-1,-1,-1,-1],"split_conditions":[9E0,1E0,5.5E1,1.079E3,-1.12554446E-1,1E0,8E1,8.99E2,2.8E2,1E1,1E0,-1.7597209E-1,6.8E2,3.0794786E-3,5.868408E-2,-8.5350595E-2,4.1705593E-3,4.0603586E-2,-5.6143787E-2,8.148505E-2,-2.67384E-2,-1.654349E-2,-8.8462956E-2],"split_indices":[1,23,9,3,0,2,9,3,9,1,14,0,5,0,0,0,0,0,0,0,0,0,0],"split_type":[0,0,0,0,0,0,0,0,0,0,0,0,0,0,0,0,0,0,0,0,0,0,0],"sum_hessian":[3.6689377E2,2.754957E2,9.139807E1,2.7285858E2,2.6371205E0,3.778279E1,5.361528E1,2.5158078E2,2.1277811E1,1.6022581E1,2.176021E1,3.6652808E0,4.995E1,2.2823692E2,2.334386E1,9.384423E0,1.1893387E1,3.5822203E0,1.2440361E1,1.3696315E1,8.063894E0,3.7340454E1,1.2609545E1],"tree_param":{"num_deleted":"0","num_feature":"31","num_nodes":"23","size_leaf_vector":"1"}},{"base_weights":[-6.6788425E-3,9.545973E-3,-1.055419E0,-1.0069785E-2,7.787715E-1,-1.3731591E-1,6.1763795E-3,9.434202E-2,-1.0808522E-1,9.6057683E-1,-2.2818685E-2,3.0421873E-3,5.5320144E-2,4.9020078E-2,-1.644857E-2,1.151607E-1,6.4801695E-3],"categories":[],"categories_nodes":[],"categories_segments":[],"categories_sizes":[],"default_left":[0,0,0,0,0,0,0,0,0,0,0,0,0,0,0,0,0],"id":40,"left_children":[1,3,5,7,9,-1,-1,11,13,15,-1,-1,-1,-1,-1,-1,-1],"loss_changes":[6.4226427E0,5.622637E0,2.1260915E0,3.733799E0,1.9155092E0,0E0,0E0,5.1661124E0,6.4290953E0,1.3013148E0,0E0,0E0,0E0,0E0,0E0,0E0,0E0],"parents":[2147483647,0,0,1,1,2,2,3,3,4,4,7,7,8,8,9,9],"right_children":[2,4,6,8,10,-1,-1,12,14,16,-1,-1,-1,-1,-1,-1,-1],"split_conditions":[5.35E2,4.75E2,1.1E1,1.1E2,5E0,-1.3731591E-1,6.1763795E-3,1E2,3E0,6.113537E-3,-2.2818685E-2,3.0421873E-3,5.5320144E-2,4.9020078E-2,-1.644857E-2,1.151607E-1,6.4801695E-3],"split_indices":[9,9,1,9,0,0,0,9,1,11,0,0,0,0,0,0,0],"split_type":[0,0,0,0,0,0,0,0,0,0,0,0,0,0,0,0,0],"sum_hessian":[3.7586374E2,3.7111325E2,4.7505093E0,3.628473E2,8.265936E0,3.5201967E0,1.2303125E0,1.757091E2,1.871382E2,7.040789E0,1.2251464E0,1.5516112E2,2.0547993E1,1.5459133E1,1.7167906E2,5.567816E0,1.4729733E0],"tree_param":{"num_deleted":"0","num_feature":"31","num_nodes":"17","size_leaf_vector":"1"}},{"base_weights":[2.8646111E-2,2.8996846E-1,3.330784E-3,-1.399611E-1,7.237959E-1,1.8753584E-1,-6.2056947E-2,1.8213321E-1,-1.1537733E0,2.7191553E-1,1.0098599E0,1.2605053E-1,1.1205864E0,-7.077688E-1,-8.873941E-3,5.9453305E-2,-2.5675729E-2,-1.638212E-1,-8.143081E-3,-1.0322831E-1,7.415326E-2,1.6683747E-1,3.994738E-2,-1.1644905E-2,2.526847E-2,4.3192852E-2,1.3188384E-1,1.512277E-2,-1.2601888E-1,5.1459945E-3,-2.9058238E-2],"categories":[],"categories_nodes":[],"categories_segments":[],"categories_sizes":[],"default_left":[0,0,0,0,0,0,0,0,0,0,0,0,0,0,0,0,0,0,0,0,0,0,0,0,0,0,0,0,0,0,0],"id":41,"left_children":[1,3,5,7,9,11,13,15,17,19,21,23,25,27,29,-1,-1,-1,-1,-1,-1,-1,-1,-1,-1,-1,-1,-1,-1,-1,-1],"loss_changes":[2.4688563E0,6.249064E0,4.1234713E0,5.88968E0,1.8671284E0,5.0037355E0,8.67157E0,2.698041E0,2.1158957E0,5.5373535E0,3.2634153E0,2.647799E0,1.7002296E-1,9.309327E0,4.00032E0,0E0,0E0,0E0,0E0,0E0,0E0,0E0,0E0,0E0,0E0,0E0,0E0,0E0,0E0,0E0,0E0],"parents":[2147483647,0,0,1,1,2,2,3,3,4,4,5,5,6,6,7,7,8,8,9,9,10,10,11,11,12,12,13,13,14,14],"right_children":[2,4,6,8,10,12,14,16,18,20,22,24,26,28,30,-1,-1,-1,-1,-1,-1,-1,-1,-1,-1,-1,-1,-1,-1,-1,-1],"split_conditions":[2E0,3.47E2,3.15E2,4.7194153E-1,1E0,3.04E2,3.69E2,1E0,3.3E2,1.7E2,3.8E2,0E0,1E0,0E0,1.9E1,5.9453305E-2,-2.5675729E-2,-1.638212E-1,-8.143081E-3,-1.0322831E-1,7.415326E-2,1.6683747E-1,3.994738E-2,-1.1644905E-2,2.526847E-2,4.3192852E-2,1.3188384E-1,1.512277E-2,-1.2601888E-1,5.1459945E-3,-2.9058238E-2],"split_indices":[12,5,5,13,14,5,5,14,4,9,5,6,2,6,4,0,0,0,0,0,0,0,0,0,0,0,0,0,0,0,0],"split_type":[0,0,0,0,0,0,0,0,0,0,0,0,0,0,0,0,0,0,0,0,0,0,0,0,0,0,0,0,0,0,0],"sum_hessian":[3.7234088E2,3.196118E1,3.403797E2,1.6392923E1,1.5568255E1,8.868249E1,2.5169722E2,1.3063058E1,3.329865E0,6.79116E0,8.777096E0,8.426478E1,4.417707E0,1.8216515E1,2.334807E2,6.551948E0,6.5111103E0,1.9301916E0,1.3996733E0,1.4807507E0,5.310409E0,3.3883102E0,5.388786E0,2.8935274E1,5.5329502E1,1.6980302E0,2.719677E0,7.414084E0,1.0802432E1,1.929695E2,4.051121E1],"tree_param":{"num_deleted":"0","num_feature":"31","num_nodes":"31","size_leaf_vector":"1"}},{"base_weights":[7.2099976E-3,-1.4828011E-1,9.873926E-2,-7.222241E-2,-4.9998108E-1,5.110689E-2,4.3987814E-1,-1.8469249E-1,2.4384312E-1,-1.0136904E-1,-9.719374E-2,-1.0229014E-1,1.8285629E-1,-8.7232485E-2,6.049162E-1,-4.3098345E-2,1.3822058E-2,8.145403E-2,-8.029958E-3,3.217536E-2,-8.9871585E-2,1.0193073E-2,-5.0779548E-2,5.732282E-2,8.976593E-3,-5.3328138E-2,7.8432076E-2,8.022467E-2,7.4732313E-3],"categories":[],"categories_nodes":[],"categories_segments":[],"categories_sizes":[],"default_left":[0,0,0,0,0,0,0,0,0,0,0,0,0,0,0,0,0,0,0,0,0,0,0,0,0,0,0,0,0],"id":42,"left_children":[1,3,5,7,9,11,13,15,17,-1,19,21,23,25,27,-1,-1,-1,-1,-1,-1,-1,-1,-1,-1,-1,-1,-1,-1],"loss_changes":[5.3608446E0,3.6978862E0,3.8295434E0,4.1664515E0,5.0021815E0,4.245528E0,2.5680084E0,6.905573E0,5.774045E0,0E0,5.3003635E0,8.10737E0,4.050238E0,3.4381454E0,2.2568827E0,0E0,0E0,0E0,0E0,0E0,0E0,0E0,0E0,0E0,0E0,0E0,0E0,0E0,0E0],"parents":[2147483647,0,0,1,1,2,2,3,3,4,4,5,5,6,6,7,7,8,8,10,10,11,11,12,12,13,13,14,14],"right_children":[2,4,6,8,10,12,14,16,18,-1,20,22,24,26,28,-1,-1,-1,-1,-1,-1,-1,-1,-1,-1,-1,-1,-1,-1],"split_conditions":[2E0,9E0,9.79E2,7.2E2,1E0,2.9325513E-3,9.4250706E-4,7.4074073E-3,1.1111111E-3,-1.0136904E-1,5.14E2,1.5384615E-3,3.5252643E-3,1.1E1,3.944773E-3,-4.3098345E-2,1.3822058E-2,8.145403E-2,-8.029958E-3,3.217536E-2,-8.9871585E-2,1.0193073E-2,-5.0779548E-2,5.732282E-2,8.976593E-3,-5.3328138E-2,7.8432076E-2,8.022467E-2,7.4732313E-3],"split_indices":[8,1,3,5,2,11,11,11,11,0,3,11,11,1,11,0,0,0,0,0,0,0,0,0,0,0,0,0,0],"split_type":[0,0,0,0,0,0,0,0,0,0,0,0,0,0,0,0,0,0,0,0,0,0,0,0,0,0,0,0,0],"sum_hessian":[3.7464944E2,1.3859088E2,2.3605855E2,1.1493974E2,2.3651144E1,2.0814552E2,2.7913025E1,8.508013E1,2.9859615E1,9.727781E0,1.3923363E1,9.627512E1,1.118704E2,6.768079E0,2.1144947E1,4.8076633E1,3.7003494E1,1.0268182E1,1.9591434E1,9.537028E0,4.3863344E0,6.452675E1,3.1748373E1,2.0547455E1,9.1322945E1,4.7336087E0,2.03447E0,1.5035645E1,6.109302E0],"tree_param":{"num_deleted":"0","num_feature":"31","num_nodes":"29","size_leaf_vector":"1"}},{"base_weights":[1.5274827E-2,-1.3259393E-2,3.7300602E-1,3.5148297E-2,-2.0342049E-1,7.002241E-1,-2.4700256E-1,3.3149508E-1,-1.0312881E-2,-3.0296663E-2,-5.26479E-1,1.0013255E0,1.16371326E-1,-9.8789567E-1,2.4064498E-1,4.9785666E-2,-6.0758065E-2,-3.9490584E-2,4.8831585E-3,-3.779347E-2,4.138144E-2,-7.197667E-2,3.5548482E-2,1.15750305E-1,-6.069589E-4,-9.3867E-2,7.940521E-2,-1.3982682E-1,1.3527355E-2,9.494932E-2,-7.851295E-2],"categories":[],"categories_nodes":[],"categories_segments":[],"categories_sizes":[],"default_left":[0,0,0,0,0,0,0,0,0,0,0,0,0,0,0,0,0,0,0,0,0,0,0,0,0,0,0,0,0,0,0],"id":43,"left_children":[1,3,5,7,9,11,13,15,17,19,21,23,25,27,29,-1,-1,-1,-1,-1,-1,-1,-1,-1,-1,-1,-1,-1,-1,-1,-1],"loss_changes":[3.8605168E0,3.2361653E0,5.8407636E0,3.7817965E0,3.973112E0,3.1440125E0,3.9915984E0,6.134628E0,5.5722723E0,7.489757E0,4.4877768E0,1.9115276E0,6.066257E0,2.1803226E0,5.8862147E0,0E0,0E0,0E0,0E0,0E0,0E0,0E0,0E0,0E0,0E0,0E0,0E0,0E0,0E0,0E0,0E0],"parents":[2147483647,0,0,1,1,2,2,3,3,4,4,5,5,6,6,7,7,8,8,9,9,10,10,11,11,12,12,13,13,14,14],"right_children":[2,4,6,8,10,12,14,16,18,20,22,24,26,28,30,-1,-1,-1,-1,-1,-1,-1,-1,-1,-1,-1,-1,-1,-1,-1,-1],"split_conditions":[1E0,6E0,6E0,-1.2E1,6.44E2,1.8518518E-3,2.9E2,7.4E2,0E0,5.2E2,6.79E2,4E0,2E0,1.1E1,2.6666666E-3,4.9785666E-2,-6.0758065E-2,-3.9490584E-2,4.8831585E-3,-3.779347E-2,4.138144E-2,-7.197667E-2,3.5548482E-2,1.15750305E-1,-6.069589E-4,-9.3867E-2,7.940521E-2,-1.3982682E-1,1.3527355E-2,9.494932E-2,-7.851295E-2],"split_indices":[29,0,1,6,3,11,9,3,6,3,4,8,8,1,11,0,0,0,0,0,0,0,0,0,0,0,0,0,0,0,0],"split_type":[0,0,0,0,0,0,0,0,0,0,0,0,0,0,0,0,0,0,0,0,0,0,0,0,0,0,0,0,0,0,0],"sum_hessian":[3.7671643E2,3.4977942E2,2.6937017E1,2.794559E2,7.032354E1,1.754698E1,9.3900385E0,3.6331394E1,2.431245E2,4.649898E1,2.3824558E1,1.110496E1,6.442019E0,3.3200212E0,6.0700173E0,3.1262877E1,5.068518E0,3.1648687E1,2.114758E2,2.6165977E1,2.0333004E1,1.969269E1,4.1318674E0,9.485419E0,1.6195412E0,2.3688989E0,4.07312E0,2.2522027E0,1.0678183E0,3.6334991E0,2.4365182E0],"tree_param":{"num_deleted":"0","num_feature":"31","num_nodes":"31","size_leaf_vector":"1"}},{"base_weights":[-3.791841E-3,-1.746607E-2,7.6053154E-1,8.051413E-2,-1.0385556E-1,-2.7380291E-2,1.19578294E-1,1.5676906E-2,5.35493E-1,-1.7794509E-1,1.8608098E-1,4.8917206E-3,-5.0923068E-2,-1.3868527E-1,6.991894E-2,8.19027E-2,-2.2999212E-2,2.8965637E-2,-7.157077E-2],"categories":[],"categories_nodes":[],"categories_segments":[],"categories_sizes":[],"default_left":[0,0,0,0,0,0,0,0,0,0,0,0,0,0,0,0,0,0,0],"id":44,"left_children":[1,3,5,7,9,-1,-1,11,13,15,17,-1,-1,-1,-1,-1,-1,-1,-1],"loss_changes":[3.9311194E0,3.133834E0,3.3036585E0,5.112137E0,4.2577596E0,0E0,0E0,2.6937556E0,7.7732797E0,8.342824E0,3.9916306E0,0E0,0E0,0E0,0E0,0E0,0E0,0E0,0E0],"parents":[2147483647,0,0,1,1,2,2,3,3,4,4,7,7,8,8,9,9,10,10],"right_children":[2,4,6,8,10,-1,-1,12,14,16,18,-1,-1,-1,-1,-1,-1,-1,-1],"split_conditions":[2.1E1,1.1E2,6.39E2,9.5E1,9.49E2,-2.7380291E-2,1.19578294E-1,9.49E2,3E0,2E0,5.8E2,4.8917206E-3,-5.0923068E-2,-1.3868527E-1,6.991894E-2,8.19027E-2,-2.2999212E-2,2.8965637E-2,-7.157077E-2],"split_indices":[10,9,5,9,3,0,0,3,1,1,9,0,0,0,0,0,0,0,0],"split_type":[0,0,0,0,0,0,0,0,0,0,0,0,0,0,0,0,0,0,0],"sum_hessian":[3.738575E2,3.6824652E2,5.6110153E0,1.725799E2,1.9566661E2,1.7716901E0,3.8393252E0,1.5195924E2,2.0620651E1,1.561506E2,3.9516006E1,1.4376218E2,8.197076E0,1.0317953E0,1.9588856E1,7.0162625E0,1.4913434E2,3.6053825E1,3.4621825E0],"tree_param":{"num_deleted":"0","num_feature":"31","num_nodes":"19","size_leaf_vector":"1"}},{"base_weights":[-1.8434932E-3,1.3639835E-1,-5.540906E-2,9.677261E-2,8.9359456E-1,-5.987789E-1,-3.8600513E-3,1.0041652E-2,3.5282525E-1,2.6988476E-3,1.18448794E-1,-1.0600483E0,1.4996752E-1,1.1307378E0,-2.4524366E-2,2.0030877E-2,-2.3076242E-2,7.59029E-2,-2.282997E-3,-1.7942144E-2,-1.2588291E-1,-6.753179E-2,6.535576E-2,1.7235415E-1,2.3489695E-3,-5.264679E-3,5.619059E-2],"categories":[],"categories_nodes":[],"categories_segments":[],"categories_sizes":[],"default_left":[0,0,0,0,0,0,0,0,0,0,0,0,0,0,0,0,0,0,0,0,0,0,0,0,0,0,0],"id":45,"left_children":[1,3,5,7,9,11,13,15,17,-1,-1,19,21,23,25,-1,-1,-1,-1,-1,-1,-1,-1,-1,-1,-1,-1],"loss_changes":[2.7400956E0,3.014247E0,7.4671736E0,2.202221E0,1.2329497E0,8.137173E0,5.7618484E0,3.4927058E0,3.847662E0,0E0,0E0,2.2980556E0,4.46528E0,2.8448887E0,4.0069914E0,0E0,0E0,0E0,0E0,0E0,0E0,0E0,0E0,0E0,0E0,0E0,0E0],"parents":[2147483647,0,0,1,1,2,2,3,3,4,4,5,5,6,6,7,7,8,8,11,11,12,12,13,13,14,14],"right_children":[2,4,6,8,10,12,14,16,18,-1,-1,20,22,24,26,-1,-1,-1,-1,-1,-1,-1,-1,-1,-1,-1,-1],"split_conditions":[3.15E2,3.04E2,3.69E2,4E0,5E0,5E0,3.7E2,2.19E2,6E0,2.6988476E-3,1.18448794E-1,1E0,1.4975041E-2,4E0,1.8E1,2.0030877E-2,-2.3076242E-2,7.59029E-2,-2.282997E-3,-1.7942144E-2,-1.2588291E-1,-6.753179E-2,6.535576E-2,1.7235415E-1,2.3489695E-3,-5.264679E-3,5.619059E-2],"split_indices":[5,5,5,10,0,0,5,5,10,0,0,0,11,10,10,0,0,0,0,0,0,0,0,0,0,0,0],"split_type":[0,0,0,0,0,0,0,0,0,0,0,0,0,0,0,0,0,0,0,0,0,0,0,0,0,0,0],"sum_hessian":[3.6801248E2,1.0234206E2,2.6567044E2,9.832433E1,4.0177236E0,2.2100185E1,2.4357025E2,7.4222626E1,2.4101704E1,1.2843297E0,2.733394E0,1.3418117E1,8.68207E0,3.3958862E0,2.4017436E2,4.155603E1,3.26666E1,1.1089669E1,1.3012034E1,2.8214233E0,1.0596693E1,3.1609256E0,5.521144E0,1.8492353E0,1.5466509E0,2.3005235E2,1.0121998E1],"tree_param":{"num_deleted":"0","num_feature":"31","num_nodes":"27","size_leaf_vector":"1"}},{"base_weights":[-5.3466585E-2,-6.609053E-2,6.437027E-1,8.395816E-3,-1.9757292E-1,-3.201412E-2,1.0970159E0,-1.5924893E-2,1.2196037E0,1.0942356E-1,-5.261371E-1,3.3460215E-2,1.2156355E-1,-2.4781141E-2,5.456303E-3,-3.811564E-3,1.7458081E-1,4.700517E-2,-4.094864E-2,-7.000747E-2,9.924523E-3],"categories":[],"categories_nodes":[],"categories_segments":[],"categories_sizes":[],"default_left":[0,0,0,0,0,0,0,0,0,0,0,0,0,0,0,0,0,0,0,0,0],"id":46,"left_children":[1,3,5,7,9,-1,11,13,15,17,19,-1,-1,-1,-1,-1,-1,-1,-1,-1,-1],"loss_changes":[3.2320242E0,3.4966195E0,3.2080288E0,6.758246E0,1.3079168E1,0E0,1.5850067E-2,3.6952577E0,3.0553102E0,1.283633E1,6.871277E0,0E0,0E0,0E0,0E0,0E0,0E0,0E0,0E0,0E0,0E0],"parents":[2147483647,0,0,1,1,2,2,3,3,4,4,6,6,7,7,8,8,9,9,10,10],"right_children":[2,4,6,8,10,-1,12,14,16,18,20,-1,-1,-1,-1,-1,-1,-1,-1,-1,-1],"split_conditions":[2.1E1,5.8E2,6.59E2,5.75E2,6E0,-3.201412E-2,2.4242423E-2,2E0,4E0,1.8518518E-3,9.99E2,3.3460215E-2,1.2156355E-1,-2.4781141E-2,5.456303E-3,-3.811564E-3,1.7458081E-1,4.700517E-2,-4.094864E-2,-7.000747E-2,9.924523E-3],"split_indices":[10,5,5,5,1,0,11,0,0,11,5,0,0,0,0,0,0,0,0,0,0],"split_type":[0,0,0,0,0,0,0,0,0,0,0,0,0,0,0,0,0,0,0,0,0],"sum_hessian":[3.6139865E2,3.5586014E2,5.538514E0,2.277648E2,1.2809535E2,1.8656039E0,3.6729105E0,2.242488E2,3.5160003E0,6.6565926E1,6.152942E1,1.0089295E0,2.663981E0,5.168925E1,1.7255954E2,1.3107196E0,2.2052805E0,3.932812E1,2.7237804E1,4.804674E1,1.3482677E1],"tree_param":{"num_deleted":"0","num_feature":"31","num_nodes":"21","size_leaf_vector":"1"}},{"base_weights":[-1.4058636E-2,-7.582348E-4,-7.2736645E-1,-1.6157521E-2,6.829752E-1,-1.1866623E-1,2.3586748E-2,-7.2091326E-2,1.4776826E-1,8.5113025E-1,-1.7654298E-2,-5.3812005E-3,-9.904234E-2,-8.755051E-2,2.107889E-2,4.06993E-2,9.9557646E-2],"categories":[],"categories_nodes":[],"categories_segments":[],"categories_sizes":[],"default_left":[0,0,0,0,0,0,0,0,0,0,0,0,0,0,0,0,0],"id":47,"left_children":[1,3,5,7,9,-1,-1,11,13,15,-1,-1,-1,-1,-1,-1,-1],"loss_changes":[3.4863098E0,3.820468E0,3.2557673E0,3.263915E0,1.3054061E0,0E0,0E0,4.398764E0,6.0267363E0,3.466797E-2,0E0,0E0,0E0,0E0,0E0,0E0,0E0],"parents":[2147483647,0,0,1,1,2,2,3,3,4,4,7,7,8,8,9,9],"right_children":[2,4,6,8,10,-1,-1,12,14,16,-1,-1,-1,-1,-1,-1,-1],"split_conditions":[5.35E2,4.75E2,1E0,3E0,5E0,-1.1866623E-1,2.3586748E-2,4.15E2,1E0,1.029E3,-1.7654298E-2,-5.3812005E-3,-9.904234E-2,-8.755051E-2,2.107889E-2,4.06993E-2,9.9557646E-2],"split_indices":[9,9,14,8,0,0,0,9,15,3,0,0,0,0,0,0,0],"split_type":[0,0,0,0,0,0,0,0,0,0,0,0,0,0,0,0,0],"sum_hessian":[3.6653012E2,3.6080362E2,5.7265134E0,3.538113E2,6.992296E0,3.720515E0,2.0059984E0,2.6421698E2,8.959436E1,5.8563294E0,1.1359665E0,2.6009833E2,4.1186376E0,4.449817E0,8.514454E1,2.3741133E0,3.4822164E0],"tree_param":{"num_deleted":"0","num_feature":"31","num_nodes":"17","size_leaf_vector":"1"}},{"base_weights":[1.2220499E-2,2.6356416E-2,-9.027536E-1,1.2179434E-1,-6.161655E-2,-1.247476E-1,2.5171459E-2,3.0658245E-2,3.589026E-1,5.7880968E-2,-2.81147E-1,1.3868096E-2,-3.858986E-2,5.5042785E-2,-1.816759E-2,3.4447234E-2,-1.0307896E-2,-5.619942E-2,1.150316E-2],"categories":[],"categories_nodes":[],"categories_segments":[],"categories_sizes":[],"default_left":[0,0,0,0,0,0,0,0,0,0,0,0,0,0,0,0,0,0,0],"id":48,"left_children":[1,3,5,7,9,-1,-1,11,13,15,17,-1,-1,-1,-1,-1,-1,-1,-1],"loss_changes":[4.782525E0,3.0577402E0,2.5530486E0,3.7617717E0,4.992905E0,0E0,0E0,5.777674E0,5.1091485E0,5.7403545E0,7.523532E0,0E0,0E0,0E0,0E0,0E0,0E0,0E0,0E0],"parents":[2147483647,0,0,1,1,2,2,3,3,4,4,7,7,8,8,9,9,10,10],"right_children":[2,4,6,8,10,-1,-1,12,14,16,18,-1,-1,-1,-1,-1,-1,-1,-1],"split_conditions":[5.35E2,1.1E2,1.5E1,4E0,1E0,-1.247476E-1,2.5171459E-2,2E0,9E0,5E0,3E0,1.3868096E-2,-3.858986E-2,5.5042785E-2,-1.816759E-2,3.4447234E-2,-1.0307896E-2,-5.619942E-2,1.150316E-2],"split_indices":[9,9,10,10,26,0,0,10,1,1,8,0,0,0,0,0,0,0,0],"split_type":[0,0,0,0,0,0,0,0,0,0,0,0,0,0,0,0,0,0,0],"sum_hessian":[3.669243E2,3.6229813E2,4.62614E0,1.7359177E2,1.8870638E2,3.5003717E0,1.1257687E0,1.26210266E2,4.7381496E1,1.2266966E2,6.603672E1,1.0075045E2,2.5459818E1,3.49726E1,1.2408898E1,4.370759E1,7.8962074E1,3.839812E1,2.7638597E1],"tree_param":{"num_deleted":"0","num_feature":"31","num_nodes":"19","size_leaf_vector":"1"}},{"base_weights":[2.0132674E-2,7.215173E-2,-1.8481316E-1,1.0937679E-2,3.623616E-1,2.327875E-2,-7.850429E-1,4.2289462E-2,-1.4036141E-1,4.2418772E-1,-9.472041E-2,1.3241197E-1,-6.872518E-1,-1.0157547E0,4.7589332E-1,-3.9492E-3,2.4296423E-2,2.8418342E-2,1.1254382E-1,-3.0650696E-2,4.457941E-2,-1.114038E-1,5.803715E-2,-1.3215387E-1,-2.54307E-4,6.697664E-2,1.3048984E-2],"categories":[],"categories_nodes":[],"categories_segments":[],"categories_sizes":[],"default_left":[0,0,0,0,0,0,0,0,0,0,0,0,0,0,0,0,0,0,0,0,0,0,0,0,0,0,0],"id":49,"left_children":[1,3,5,7,9,11,13,15,-1,17,-1,19,21,23,25,-1,-1,-1,-1,-1,-1,-1,-1,-1,-1,-1,-1],"loss_changes":[3.966737E0,5.2629104E0,9.429632E0,1.0963132E1,4.5805445E0,4.5049396E0,6.1348133E0,3.9730327E0,0E0,4.586671E0,0E0,7.0391912E0,4.8341846E0,5.183361E0,1.5940917E-1,0E0,0E0,0E0,0E0,0E0,0E0,0E0,0E0,0E0,0E0,0E0,0E0],"parents":[2147483647,0,0,1,1,2,2,3,3,4,4,5,5,6,6,7,7,9,9,11,11,12,12,13,13,14,14],"right_children":[2,4,6,8,10,12,14,16,-1,18,-1,20,22,24,26,-1,-1,-1,-1,-1,-1,-1,-1,-1,-1,-1,-1],"split_conditions":[6E0,1.8181818E-2,1E0,9E0,4E2,2.037037E-2,6.79E2,1E0,-1.4036141E-1,2.75E2,-9.472041E-2,6.5E1,4.117647E-2,8.54E2,1.4084507E-3,-3.9492E-3,2.4296423E-2,2.8418342E-2,1.1254382E-1,-3.0650696E-2,4.457941E-2,-1.114038E-1,5.803715E-2,-1.3215387E-1,-2.54307E-4,6.697664E-2,1.3048984E-2],"split_indices":[0,11,19,10,4,11,4,19,0,9,0,9,11,3,11,0,0,0,0,0,0,0,0,0,0,0,0],"split_type":[0,0,0,0,0,0,0,0,0,0,0,0,0,0,0,0,0,0,0,0,0,0,0,0,0,0,0],"sum_hessian":[3.6982538E2,2.9547604E2,7.434936E1,2.448644E2,5.061163E1,5.5922848E1,1.8426512E1,2.4050403E2,4.360369E0,4.8975525E1,1.6361057E0,4.9182373E1,6.7404737E0,1.574087E1,2.6856415E0,1.7143993E2,6.906411E1,4.1996246E1,6.9792767E0,2.049678E1,2.868559E1,5.1333323E0,1.6071419E0,1.185789E1,3.8829803E0,1.1186597E0,1.5669817E0],"tree_param":{"num_deleted":"0","num_feature":"31","num_nodes":"27","size_leaf_vector":"1"}},{"base_weights":[-1.7727729E-2,1.4651114E-1,-8.359642E-2,2.0070814E-1,-3.1348908E-1,-1.5570611E-1,-6.224505E-2,-2.7311248E-1,3.0559453E-1,-9.025744E-1,5.2811563E-1,-2.4450144E-1,2.7815904E-2,-9.825794E-2,1.5910452E-2,4.0591564E-2,-4.928938E-3,-1.24773495E-1,1.6164115E-2,9.22107E-2,-2.8396858E-2,-3.890453E-2,1.9135525E-2,3.5367783E-2,-2.4336902E-3],"categories":[],"categories_nodes":[],"categories_segments":[],"categories_sizes":[],"default_left":[0,0,0,0,0,0,0,0,0,0,0,0,0,0,0,0,0,0,0,0,0,0,0,0,0],"id":50,"left_children":[1,3,5,7,9,-1,11,13,15,17,19,21,23,-1,-1,-1,-1,-1,-1,-1,-1,-1,-1,-1,-1],"loss_changes":[4.00104E0,2.7032614E0,8.202477E0,4.8223248E0,6.2044306E0,0E0,4.292172E0,5.617766E0,2.8163605E0,2.8336658E0,1.9857146E0,5.520565E0,2.993397E0,0E0,0E0,0E0,0E0,0E0,0E0,0E0,0E0,0E0,0E0,0E0,0E0],"parents":[2147483647,0,0,1,1,2,2,3,3,4,4,6,6,7,7,8,8,9,9,10,10,11,11,12,12],"right_children":[2,4,6,8,10,-1,12,14,16,18,20,22,24,-1,-1,-1,-1,-1,-1,-1,-1,-1,-1,-1,-1],"split_conditions":[3.15E2,7.68E2,3.2E2,2E0,4.35E2,-1.5570611E-1,2E0,1.7E2,6E0,1E0,4E0,8.99E2,1E0,-9.825794E-2,1.5910452E-2,4.0591564E-2,-4.928938E-3,-1.24773495E-1,1.6164115E-2,9.22107E-2,-2.8396858E-2,-3.890453E-2,1.9135525E-2,3.5367783E-2,-2.4336902E-3],"split_indices":[5,3,5,0,9,0,8,5,0,29,0,3,0,0,0,0,0,0,0,0,0,0,0,0,0],"split_type":[0,0,0,0,0,0,0,0,0,0,0,0,0,0,0,0,0,0,0,0,0,0,0,0,0],"sum_hessian":[3.6771127E2,1.0490755E2,2.628037E2,9.435443E1,1.0553113E1,2.7264302E0,2.6007727E2,1.6810358E1,7.7544075E1,6.1652627E0,4.3878503E0,8.544578E1,1.746315E2,5.8819785E0,1.0928379E1,6.034229E1,1.7201784E1,4.525158E0,1.6401047E0,2.8632379E0,1.5246125E0,6.424688E1,2.1198898E1,2.3295383E1,1.5133612E2],"tree_param":{"num_deleted":"0","num_feature":"31","num_nodes":"25","size_leaf_vector":"1"}},{"base_weights":[-1.5925205E-3,1.6305679E-1,-6.711219E-2,1.08433194E-1,8.103544E-1,-5.28488E-1,-2.3335963E-2,-1.2763799E-2,4.651261E-1,2.8535452E-1,1.5189177E-1,-9.10135E-1,6.251596E-2,-9.250849E-2,2.848815E-1,8.874231E-3,-6.6016324E-2,6.5129876E-2,-8.0680355E-2,-1.2917737E-2,4.897494E-2,-1.3467813E-1,-4.181656E-2,-6.33731E-2,4.9622618E-2,1.2991653E-1,